-0.00024692,6.964e-05,0.0013115,-0.0007178,-0.00069068,0.00014872,-0.00050093,0.00090464,-0.00048543,-0.00051812,0.00028891,0.00048229,-0.001279,0.00075832,-0.0004701,0.00051158,-0.0012683,0.00015851,0.00092059,0.0010175,-0.001624,0.00080184,-0.00026579,-0.00023538,0.00040812,0.00077318,0.00040217,-0.00054212,0.00025152,0.0011833,-0.00075495,0.00031212,0.00040222,0.00015008,5.5847e-05,0.0010324,-8.0838e-05,0.0003457,-0.0007916,-0.00073475,-0.00053735,0.0014011,0.0015227,-0.0003628,0.00035788,0.0014008,-0.0002734,-0.0011483,0.00090229,-0.00046535,0.00019478,0.00080131,0.00091391,-0.00046583,0.00083973,0.0013173,0.00023204,0.00025572,0.00045965,9.7767e-05,0.0011314,-0.0012244,-0.00020589,0.00024255,0.00059631,-0.00030844,0.002041,-0.00067976,0.0014582,0.0013233,0.00066045,-0.00085478,-0.00026814,-0.00082931,-0.00053195,0.00035422,0.0013856,0.00049771,0.00016409,-0.0011223,-0.0010829,0.00060737,-0.00073168,0.0011799,-0.00051225,-0.00090706,0.0015176,0.00058598,0.00011811,-0.0007372,0.00045145,0.00029098,0.0011015,0.00015083,-0.00022165,0.0010329,-0.00033641,0.00077478,-0.00048705,0.00055387,0.00088582,-0.0022572,-0.0008776,0.0017158,5.8706e-05,-0.00038389,-0.00072931,-0.0010166,-0.00010552,0.001293,-0.00124,0.00066204,0.00025693,-0.00034576,-0.00023557,-0.0010389,0.00057561,-0.00059385,0.0010219,6.6398e-05,0.00069356,0.00082565,0.00018688,-0.001008,0.0010147,-0.0017708,-0.0001854,0.00092527,-3.0724e-05,-0.00032782,0.0003764,0.0010702,5.3043e-05,0.00066127,-0.00061775,-0.0002313,0.00080036,0.00051416,0.00077028,-0.0014304,-0.00021085,-0.0007601,-0.00024088,-0.00024088,6.17e-05,0.00016192,0.0012979,-0.00037912,-0.0013896,0.00049179,-0.0003431,-0.00046339,-0.00014762,0.00022398,0.00068394,-0.00026904,0.00046042,0.00051129,0.0006923,-0.00046415,0.00020609,0.00026695,0.00035412,-0.0015039,-0.00091574,-0.00044137,-0.00077579,0.0013781,-0.00030132,-0.00036806,0.00028171,-0.00035604,-6.8529e-05,-0.00044246,-7.5574e-05,-0.00017862,-0.00057228,0.00092478,0.0007956,-0.00022598,0.00092728,0.0004021,-6.6206e-06,-6.1494e-05,0.00041023,0.0014133,-0.00026952,-4.4692e-05,-0.00049537,0.00043999,-1.0829e-05,4.5251e-06,-0.00015698,-0.00031597,0.00021369,-0.00034696,-0.0004738,-9.0784e-05,-0.00044294,-0.0006576,0.00032653,0.00040974,0.0015076,-3.373e-05,-0.00014756,0.0015983,-0.0015772,-0.0017429,0.0002309,-0.00075887,0.00053949,0.0010521,0.00076245,-0.00040936,0.00011169,0.00072623,-0.00073198,-0.00049987,0.001223,0.00045234,0.00010853,-0.00063232,-0.00062282,9.9422e-05,0.00093476,0.0015496,0.0003861,0.0013729,0.0013291,0.00095079,0.00076987,-0.00026302,-9.3632e-05,-0.0015888,-0.00071984,0.00055255,-0.00019402,0.0002451,4.3049e-05,0.00039545,-0.00033656,-0.00072355,-0.0014282,-0.00055506,-0.00049167,0.00071005,0.0010837,0.00047864,-0.00013628,-7.4953e-05,0.00059519,0.00042361,0.00088524,0.00021069,-0.00039121,0.00087489,5.0413e-06,0.00054643,0.00049006,-0.00059499,0.00022445,-0.00064288,-0.0012277,0.00091399,0.00018708,-0.00031622,-0.00084096,0.0002008,-0.00056996,0.00066227,-0.0011918,9.1502e-05,-1.5206e-05,-0.00031533,-0.00043183,0.00012847,0.00037627,-4.7557e-05,0.00066343,-0.00023878,-0.00035332,0.00077812,0.00012542,0.0001721,0.00036126,0.00039725,7.3291e-05,0.00062653,0.0002474,0.00064322,0.00081749,0.00062742,-0.0015238,-5.8399e-07,-0.00071093,0.0012265,0.00046057,-0.00030064,-0.00060815,-0.00080298,-0.00028242,-0.00064579,-5.8125e-05,-0.0010763,9.9e-05,0.00042955,0.0014031,-0.0007777,-0.0011155,-0.0012329,-0.000893,-8.5925e-05,-0.00058285,0.00033007,-1.685e-05,-0.0014304,-0.00016132,0.00053923,-0.00066017,0.00057775,0.0010761,-0.00016386,-0.00078813,-0.001493,-3.548e-05,-0.0002079,-0.0014902,0.0012042,-0.00029378,-0.00023571,-0.00034918,-0.0002397,5.7412e-05,-0.0008501,-0.00059563,0.00011472,-0.00078624,0.00078806,4.148e-05,-6.8107e-05,-6.7699e-06,-0.00034457,0.00040403,-2.1449e-05,-0.00038155,0.0017941,-0.00027795,-3.4358e-05,-0.0005267,0.00048445,-5.1764e-06,0.00048781,-0.00048329,-0.0010297,-0.00072316,0.00051021,0.00034915,8.2715e-06,-0.00084947,0.00036972,-0.00068627,0.0011828,0.00055947,-0.00035082,0.00088767,0.00065116,-0.0011131,-0.0012009,0.0010982,5.8805e-05,-0.00096784,0.00044727,0.00035988,-7.4265e-05,-0.00052187,0.00060489,-0.00029444,-7.2943e-05,0.0012076,0.00096516,0.00088518,-0.0010945,1.7828e-05,0.00057439,0.0014034,0.0014475,-0.00086821,0.00023766,0.0011878,0.00017786,0.0012078,0.0010063,0.0010414,-0.0014249,-0.0013923,-0.00037022,-0.0010216,0.00062838,0.00024233,0.00032733,-0.0005876,0.00076587,0.00012603,-0.0014755,-0.0010007,-0.0007555,0.00075771,0.00045898,-0.00027793,-0.0012833,0.00095884,0.0011326,0.0010013,-0.0003941,-0.00019302,0.0013156,0.00085027,-3.1244e-05,0.00030534,0.00031641,-0.00024074,0.00011027,-0.0014489,0.0011048,1.5067e-06,0.0013448,0.00099122,-0.00093001,0.00053135,0.0021891,-0.0009064,0.00015622,0.0011799,-4.7081e-05,-0.0011599,-7.3347e-05,0.0008346,-0.00024161,0.0019801,-1.9415e-05,0.001343,0.0018054,-0.00021113,0.0011504,0.00064408,-0.00063441,0.00060993,0.00061376,0.00097794,-0.00040276,0.0001788,0.000154,-0.00043986,0.00080978,-0.00070629,0.0016667,0.00019317,-0.00039717,-0.0012093,-0.00062798,-0.0022733,-0.00047876,-0.0010236,0.00030951,8.4714e-05,0.0001227,0.0014323,-0.00082334,-4.1578e-05,0.00023877,0.00069934,-0.0013271,-0.00036104,-0.00042679,1.8509e-05,-0.00079717,-0.00014903,0.00084523,-0.00077237,0.0011364,0.0011125,-0.0011197,-0.0016479,-0.00075643,-0.00047896,0.0014897,-0.0012514,0.0017748,-0.0014701,-8.5526e-05,-0.00050314,-0.00025362,-0.00070034,-0.0004534,-0.00113,-0.00055978,-0.00094169,0.001086,-0.00075673,-0.00036639,-0.00074411,-0.0012461,0.0006302,-0.00013856,-0.00055385,0.0016819,-0.00036391,0.00036677,-0.00088082,0.00053527,-0.00085269,0.0017889,-0.00085091,-0.0011153,-0.00098521,-0.00014711,0.00088588,-0.0012787,-0.0010841,-0.0012112,-0.00051482,0.00078193,0.00092447,-0.00013939,0.00039014,0.0010083,-0.0011334,-0.0014054,0.00039818,-0.0003167,-0.0016076,0.0016194,-0.00075398,0.00012477,-0.00052961,0.00046521,0.00063295,0.00037413,0.001308,0.00086321,0.00077608,-0.002113,-0.00011719,-0.00043791,0.0013338,0.0010068,0.00014563,-0.00012283,0.00018536,0.00010087,0.00093233,0.0015233,0.00085658,-0.0020316,-0.001837,0.00033398,-0.0013381,0.00077356,-0.0003051,0.00069584,-2.1137e-05,0.00014114,0.00080497,-0.0022101,-0.00015678,0.0005002,0.0012253,-0.00092908,-2.528e-05,-0.001699,0.00086531,0.0015728,0.0013543,-0.0014236,-0.00097433,0.0016842,0.00095405,0.00078171,0.0007044,0.00039912,-0.00047551,-0.00016824,-0.001088,0.00065883,-0.00054539,0.0014678,0.0018725,-0.00050751,-0.0010819,0.0018365,-0.00075018,-0.0012803,0.00068361,0.00077131,-0.0016236,-0.00060038,0.0005415,-0.00038378,0.0012481,-0.00067732,0.00090268,0.0019976,0.00026897,0.00098073,0.00048842,-0.0010578,0.00020563,0.00085688,0.0013516,0.00039071,-0.00023795,-0.00012758,0.00031156,0.0013272,-0.0009543,0.0017607,-0.0003251,-8.1812e-05,-0.0011447,-0.0011529,-0.0020019,-0.00059868,-0.00089052,0.00046087,0.0011902,0.0010172,0.001628,-0.00055823,-0.00055965,0.00011562,0.00072074,-0.0015503,-0.001657,-2.0693e-05,0.00033638,-0.00074069,-0.00073901,-5.3297e-05,-4.6626e-05,0.0008941,0.0012501,-0.00082417,-0.00099854,-0.0016949,-0.00066527,0.00097607,-0.0015909,0.0007197,-0.0017531,-0.00035134,-0.0015012,-0.00047891,-0.00084789,-0.00060013,-0.00015904,-0.00087321,-0.00081503,0.00093605,0.00037129,0.0001396,0.00072243,-0.00047945,0.00011571,0.00017918,-0.00026385,0.0015699,0.00050461,-0.00052073,-0.0012091,0.001002,-0.00049872,0.0015934,-0.00017258,-0.00052855,-0.00024498,-0.00050138,0.00090374,-0.00030878,-0.0016257,-0.00022733,0.00038736,0.00039025,0.00066613,-0.00035615,0.00073469,0.0012646,-0.0017605,-0.0014186,0.00074944,0.00013672,-0.0010406,0.0019087,-0.00063707,0.0012149,-0.0015206,0.001442,0.00032594,-0.00028855,0.0014428,0.0016303,0.00059542,-0.0017193,-9.954e-05,-0.00021373,0.0017127,0.0015264,-2.7861e-05,-0.00020235,-0.00018905,0.00051623,0.0010988,0.0013976,0.00068609,-0.0016335,-0.00084654,-0.00012173,-0.0015939,0.00030043,-0.0006261,0.001427,-0.00036409,0.00088179,0.00060672,-0.0016334,-0.00030097,0.00012644,0.00064149,0.00051632,-0.00062325,-0.0010754,0.0012619,0.0017439,0.0019016,-0.00084977,-0.00091353,0.0015738,0.00085232,0.00058087,0.00034243,-0.00011434,-0.00062809,-0.00016654,-0.00019702,0.0012174,-3.4061e-05,0.0011912,0.00094568,-0.00061291,-0.00075393,0.00065259,-0.00029178,0.00020558,0.00076187,-0.00049028,-0.00093989,-0.001444,0.00092799,-0.00089556,0.0011085,0.00070673,0.0015459,0.0019292,0.00088305,0.00072563,8.0309e-05,-0.00025717,0.00032943,0.00080027,0.00065156,-0.0014422,0.00070632,0.00015577,0.00095596,0.0012701,-0.00020105,0.0018914,-9.24e-05,-0.00089211,-0.00096878,-0.00060391,-0.0018091,-0.0004904,-0.00055429,-0.00019759,0.0013606,0.0013267,0.0018033,-0.00095962,-0.00073955,0.0011472,-0.00035873,-0.00092945,-0.0012796,0.00034367,-0.00011281,-0.00047915,-0.00055916,0.00072839,1.11e-05,0.0013437,-0.00024838,-0.00044053,-0.0010816,-0.00077972,-0.00047015,0.00072275,-0.00089568,0.00080585,-0.0013439,-0.00049682,-8.6404e-05,-0.0010258,8.9301e-06,8.7327e-05,-6.9909e-06,-0.00064015,-0.00058552,0.0011465,0.0010622,0.00102,-0.00050448,-0.00025448,0.00066485,-0.00050469,0.00059098,0.0011392,-0.00026945,9.7209e-05,-0.0015258,0.00087993,-0.0004437,0.00085992,-0.00062398,-0.00058686,0.00035183,-0.00037467,-8.3882e-05,-0.0011198,-0.0021476,0.000446,0.0004637,-9.2597e-05,0.0010095,-0.0010289,0.00045453,0.0012804,-0.0014555,-0.00059795,0.0011595,0.00076966,-0.00070233,0.0015665,0.00020432,-0.00011524,-0.0013615,0.0016402,-0.00033323,-0.00073264,0.0014975,0.0014777,0.00033185,-0.0014461,-0.00022476,0.00021696,0.0012949,-0.00084963,3.438e-05,0.00038188,0.0007453,0.00111,0.0002085,0.00028514,0.0010075,-0.00063921,-0.0001353,-8.3982e-05,-0.00073989,0.00093824,-0.0006958,0.0012654,0.000111,8.7234e-05,-0.00081648,-0.00097141,-0.00016396,0.00021459,0.00064052,0.0016818,-0.00020851,-4.7623e-06,0.00054275,0.0014458,0.001259,0.00016802,-0.00029223,0.0017038,0.0009514,0.00069671,0.00059503,0.00047563,-0.00011652,-0.001413,-0.00035846,-0.00016421,0.00011696,0.0005529,-0.00034494,-8.3799e-05,-0.00094708,-0.00041611,0.00048712,0.0004719,-0.00048432,0.0002429,-0.0014222,-0.0013933,0.00051317,-0.0016377,0.0017408,-0.00057789,0.0010599,0.0023228,0.0017998,0.0023998,0.00062908,0.00012495,-0.0001641,0.00010904,0.0010541,-0.0010391,0.00071306,-0.00028817,4.6998e-06,-0.00029796,0.0010748,0.0020609,0.00010305,-0.0011064,-0.0010498,-0.0017991,-0.00019341,-0.00044019,-0.00057519,-0.0018697,0.0016281,0.001796,0.001988,0.00036354,-0.00085848,-0.00019509,-2.5256e-05,-8.1653e-05,-0.0014218,0.0011065,4.8352e-06,-0.0019399,-0.00038749,0.0010099,0.00046141,0.0011964,-0.0003277,-0.0010451,-0.00014828,8.0466e-06,-0.0013161,0.0012587,8.1696e-06,0.00093997,-0.00098458,-0.0011675,0.0017913,-0.0010253,0.00035344,-0.00023548,0.00010082,-7.7631e-05,-0.00054045,0.00046156,0.0010535,0.00077013,-0.0001894,-0.00094732,0.00086386,-0.00072305,-0.0021137,0.00032273,-0.00072962,0.00086093,-0.0013511,-0.00019063,0.00022931,-0.00013876,-0.00077465,-0.0016024,-0.00040662,-0.00026653,0.00029351,-0.00029725,-0.0013765,0.00027144,8.187e-05,0.0013591,0.00087452,-0.0011111,0.0010592,0.00032715,0.00030297,-0.00075907,0.00051901,2.4025e-05,-0.0011045,5.86e-08,8.1984e-05,-0.00022938,-0.00041478,0.0013328,-7.3795e-05,-0.00020083,0.0011153,0.00083837,0.00034981,-0.0029048,-0.0004698,-0.0003902,0.00078266,-0.00088746,0.0011441,0.0013351,0.0008186,0.00085096,-0.00023549,0.00023384,-0.00057656,0.00060597,0.00041891,0.00031727,0.00077444,-0.00025778,-0.00053957,0.00083763,-0.0005071,-0.00014044,-0.00087397,0.00048475,-0.00021332,-0.00060528,0.0014263,-0.00018751,-5.6082e-05,0.00055399,0.00027781,0.0010601,0.00029348,-0.00015545,-0.00035855,-3.3242e-05,0.00062655,8.8152e-05,0.00097152,0.0015696,0.00064049,-0.00040288,-0.0015119,-0.00059349,0.00043896,9.9184e-05,0.0001836,0.00027057,-0.00070478,-0.0014254,0.0020288,0.0016335,0.00020167,-0.00034705,-0.0005308,-0.0012759,0.00044585,-0.0016817,0.0014435,0.00011295,0.0014496,-0.00023966,0.0015948,0.00088434,-0.00057479,0.0001127,-0.00079445,0.00065813,0.0014413,-0.00080636,-0.00025702,0.00022058,0.00051785,-0.00050505,0.0009604,0.0011476,-8.4314e-05,0.00059074,-0.00032655,-0.0021164,-0.00045604,3.0864e-05,0.00016607,0.00027913,0.00089352,0.0014182,0.0014626,-2.6492e-05,-0.00050464,0.00073289,0.000653,-0.0012285,-0.00076085,0.0021094,2.9073e-05,-0.0010274,0.0012347,0.00085497,0.0010994,0.00045731,0.00068986,-0.00032567,-0.00015703,0.00071562,-9.6758e-05,0.00093632,-0.0005205,0.00053019,-0.0011609,-0.0012048,0.0010032,0.00097982,-0.00077094,0.00057255,-0.0005431,0.00020413,-0.00075242,7.2711e-05,0.0011423,-6.431e-05,-0.0020599,0.00054574,-0.0010499,-0.00089662,-0.00030509,0.00096162,0.00026691,-0.00072459,0.00025012,-0.00082247,-0.0011542,-0.00064699,0.00016342,0.00051623,-0.00048786,0.00031439,0.0007328,-0.00032296,-0.00079689,0.00098926,0.00070293,-0.0001601,-0.00025393,-0.00011758,0.0013748,0.00076599,8.4506e-05,3.4855e-05,0.00097762,-0.00022292,-0.00079114,0.0011682,0.0010112,-0.00027576,0.00090192,0.00041755,0.00051265,-0.00087191,0.0014906,-0.0005445,0.0018089,-0.0016826,-0.00046407,-0.00064043,-0.00014777,-7.0065e-05,0.0007212,-0.00096695,0.0011925,-0.00011106,1.0611e-05,-0.00023096,0.00056904,-0.00095044,-0.00070952,0.00014888,-0.00019809,0.0003518,0.0001383,0.00058333,-0.00024468,0.00014536,-0.00016662,-0.00046483,-0.00048031,-0.00075096,0.00057691,-0.00024724,6.2683e-06,-0.0021927,0.00013254,0.00099834,0.0014574,0.0010544,0.00029103,0.00011576,2.6233e-05,0.00026,-0.00040482,0.00070193,-0.00060526,0.00053266,0.00066414,0.0012142,0.0011115,-4.1603e-05,0.00078824,0.00020886,0.0014824,0.00036036,-0.00027105,0.00011911,-0.00016871,-0.0008017,-4.2927e-05,-0.0011893,-0.00027788,-0.0019574,0.00031515,0.00017977,0.00088169,0.00047859,-0.00041268,-0.00047518,0.00055949,0.00022378,0.00012133,5.2591e-05,0.00049478,-7.4333e-05,0.001262,0.00073116,0.001326,0.00060982,-0.00011094,-0.00096139,0.00063738,0.00072304,-0.00067399,-0.0017231,-0.00036682,0.00029019,-0.00035588,-0.00087683,6.371e-05,0.00057867,-0.00023251,0.00070326,-0.00032622,0.00018244,0.00076651,-0.00017666,0.00026302,0.000292,0.00071178,-0.00088052,-0.00036815,0.00073434,2.9852e-05,-0.00073381,-0.00015939,0.00087883,-0.0012698,0.00092162,-0.0014613,-0.0003548,-0.0012395,0.00059704,-0.00069033,-0.00055425,0.0016981,0.0001576,-4.646e-05,-0.00072463,0.00096801,-0.00032166,0.00087464,0.00084222,0.0020179,0.0006212,0.00083021,0.00037113,0.00055997,-0.0010811,-0.00086815,0.0010096,-0.00018157,-0.00091163,-0.00079071,-0.0017672,-0.0012596,-0.0009567,0.00047932,0.00044944,-0.00076251,-0.0013097,-0.00053046,7.4121e-05,-0.00055618,-0.0003395,0.00076939,-0.00058534,0.00019545,0.0011376,0.00082768,0.0012291,-0.0008021,-0.00115,-0.00045517,0.00056722,0.00016283,0.00077214,7.2858e-05,-0.00026298,0.00076323,-0.00030447,-0.0002801,-0.00037896,0.0011106,-0.00031926,-0.0006034,-0.00076202,-0.0015057,-0.0014922,0.00023633,0.00081735,0.0010463,0.0013228,-0.00016451,-0.00056573,0.00099925,0.00039894,0.00042326,-0.0003026,-0.0016955,-2.8287e-05,0.00022182,-0.00065791,0.00013875,0.0015824,-0.00030565,-0.0002651,-0.00076431,-0.00065502,-0.00035536,0.00067453,-0.00031,-0.0012893,-0.0012048,-0.00031916,-0.00021991,-0.00011332,0.00025724,0.0011614,0.00057129,0.00010912,-0.00026975,0.00039473,0.0003879,0.00030729,-0.0017416,0.0018152,0.00036532,9.6202e-05,0.00032474,-1.4495e-05,0.00028151,0.00025519,0.00017564,-0.00022297,0.00034669,0.00048966,-0.00032516,-0.00088363,0.00045213,-0.00023754,-0.0015686,-0.00040659,0.00085661,0.00077966,-0.00076227,0.00076452,-0.00066139,0.0004298,0.00028218,0.0011172,0.00076586,7.9931e-05,0.00067324,0.0007503,0.0008159,0.0006789,0.00067051,-0.00028367,-0.00023938,0.0012828,-0.00048656,-0.00047555,-0.0010443,-0.0014294,0.00057609,-0.00095211,-4.061e-05,0.00018161,-0.00020522,5.0145e-05,-0.00063,8.6109e-05,0.00052258,-0.0013212,-0.00010932,-0.0013618,-0.00028957,0.0005716,-1.9564e-05,-0.00054089,-0.00064453,0.00051755,-4.796e-05,-0.00046589,0.0010462,0.00021783,-0.00049616,-4.7813e-05,-0.00087008,-0.0001813,-0.0017151,0.00087319,-0.00025374,-0.00097827,0.00067093,0.00032503,0.00071551,-0.00093786,0.00089823,-0.00070812,0.0013723,0.00075654,0.00057333,5.8814e-06,0.0011999,0.00033523,0.00042975,-0.0006155,-0.0011114,0.0011519,-0.0014643,0.00070896,-0.001463,-0.0014322,-0.0014406,-0.00035771,0.00039502,-0.00069776,-0.00082528,-0.00056978,0.00019352,0.0010109,-0.000228,-0.00024219,0.00014808,0.00023868,-0.00013361,0.00058356,0.0019074,0.00046602,0.00022816,-0.0003961,0.00020932,0.0003116,-0.00041277,0.00086432,-0.0006244,-0.0002301,-0.0010057,-0.00018529,0.00037241,-7.5269e-05,0.0020418,0.0014875,-0.00076342,-0.0014168,-0.0011781,-0.00024204,0.0013219,0.00049202,-0.00060446,0.0010344,-0.0004014,-0.00083183,0.0013183,0.001817,0.00016267,-0.00043614,-0.0021063,-0.0012324,-0.00093874,-0.0014162,0.00079015,0.0013733,0.0004424,0.00035856,0.00035203,-0.0013587,0.00048713,2.3938e-05,0.00016556,-0.00087242,-0.0021309,-0.0022747,0.00036547,0.00026448,0.0013106,0.0010593,-0.00015526,-0.0003424,-0.00014331,0.00047181,0.00081077,0.0013455,-0.0008365,0.0019241,0.00011167,-0.00019282,-0.00058919,8.9715e-05,0.001336,-1.856e-05,0.00073728,0.00083936,0.00055659,0.0017407,-0.00024636,-0.0003105,-0.00026166,-0.00011461,-0.0013568,-0.00031455,0.001671,0.00031439,-0.00035366,0.001817,-0.0014536,0.00068315,0.00015525,-0.00012019,0.0017317,-0.00012109,0.00077576,7.7647e-05,0.00014945,-0.00057648,0.0014474,3.8063e-06,0.00037592,0.0010932,-0.00041986,0.00073494,-0.0013978,-0.00065861,-0.0014383,-0.0019493,0.00069367,0.0013998,-0.0015245,0.00060618,-0.00013255,-0.00037813,0.0010188,0.00026854,0.00057874,-0.001183,-0.00065107,0.00055743,-0.00054568,-0.00029791,-0.00017456,0.0013729,0.00015317,-0.00083265,0.00061675,-0.00083605,-0.00063985,0.00043483,-0.0012573,0.00058968,-0.0013504,-0.00034494,-0.00099926,-0.0013663,0.0013711,-0.00012727,0.0006998,-0.001691,8.0013e-05,-0.0018064,0.0011953,0.0011914,0.00058896,6.6619e-06,0.00079624,2.7709e-05,0.00096171,0.00013446,-0.0018145,0.00079146,-0.00085982,0.00025542,-0.0017034,-0.0011718,-0.0023815,-0.0017377,0.00099146,-0.0017773,-0.0015548,-0.0015896,0.00029562,0.00054882,-0.0012767,-0.0012062,-0.00047705,0.00023205,0.00042566,-0.00042871,0.0017257,0.00087631,-3.1028e-05,-0.0011438,0.000143,-1.4666e-05,-0.0012888,0.0009091,-0.00036629,0.00070841,-0.00051748,-0.00077451,0.00075904,0.00081718,0.00096743,0.0008232,-0.00064659,-0.0019198,-0.0013239,-0.0013165,0.0014107,0.00066794,-6.888e-05,0.00040039,-0.00042676,-0.00049634,0.00061482,0.0012285,-0.00033118,-0.00011349,-0.0023494,0.00074947,-0.00058847,-0.00029254,0.00010786,0.001344,0.00023618,0.00031438,0.00082028,-0.0011339,0.0014886,0.0014816,-0.00010082,-0.0006577,-0.0017256,-0.0011964,0.0011439,0.0018318,0.0020692,0.0011548,-0.00087864,-0.00021946,0.0011303,0.0013774,0.0012366,0.0010405,-0.0017378,0.00037652,-0.00050679,-0.0016454,-0.0017802,7.9381e-05,0.0017049,0.00026933,-0.00035636,0.00075146,0.00029656,0.00068967,-0.0011203,0.00041013,-0.00024145,0.00034122,-0.00079664,-0.00056411,-0.0002088,0.00075045,0.00037815,0.0021328,-0.00090963,0.001334,0.00060029,4.1763e-05,0.0017165,0.0012817,0.0016092,0.0009641,0.00066887,-0.0007697,0.001498,0.00083904,0.00062597,0.0014651,-0.00079288,0.00045705,-0.00070679,-0.0012834,-0.0010861,-0.0016724,0.0010491,-0.00014139,-0.0013047,-0.00022409,0.00052456,0.0012162,0.00087567,-0.00084949,0.0004739,-0.002318,-0.00085844,9.5708e-05,0.00044125,-0.00067254,0.00057561,0.0014533,0.00087701,-0.0011003,0.00041553,-0.00010775,-0.0003329,-0.00044526,-0.0011174,0.00039945,-0.0020307,-0.0010594,0.00037186,-0.0012652,0.0003484,0.00020272,0.00040806,-0.0019069,0.0009535,-0.001231,0.0016673,0.00052657,0.00029599,5.1382e-05,0.00059305,-0.00053996,0.00027457,-0.0005545,-0.0019229,0.0015764,0.00022471,2.3201e-05,-0.0008449,-0.0012359,-0.001904,-0.0015788,0.00088545,-0.0024522,-0.0015891,-0.0011069,-0.00016718,0.00091469,-0.00025024,-0.0001556,-0.0013201,0.000183,0.00015941,0.00063374,0.00047784,0.00078542,-0.0010913,-0.00073517,0.00027411,0.00099279,-0.00022014,0.00053137,9.8161e-05,-0.00010066,-0.001389,4.4231e-06,0.00017597,-0.00016203,0.0010131,0.0011262,-0.00068271,-0.0011774,-0.0010129,-0.00045454,0.0011341,-0.00052247,-7.3626e-05,0.00080369,-0.00095867,-0.00086053,0.001205,0.0016094,-0.00018235,-9.3955e-05,-0.0017808,-0.00092567,-0.00096341,-0.00069295,0.00026052,0.0019031,-0.00013577,0.00035816,0.0012588,-0.0018066,0.00080472,0.0011716,-0.00026328,-0.0010731,-0.0015949,-0.0012181,0.00094411,0.0018532,0.0015871,0.0013135,0.00013703,-0.00058309,0.00097377,0.0021314,0.00091323,0.00027754,-0.0016725,3.5646e-05,-0.0010479,-0.00094087,-0.0012107,-0.00033428,0.0012985,0.00060808,-0.00023389,0.0013932,0.00029001,0.00085356,-0.00020813,-0.00017838,0.00071625,0.00079839,-0.00047097,-0.00024075,0.00090917,0.0015108,1.8044e-05,0.0025063,-0.0014376,0.0010339,0.00094009,0.00060515,0.0014095,0.00093909,-6.4006e-05,-0.00020972,0.00085709,-0.00063777,0.0013363,0.0011193,0.00094525,0.001513,8.1748e-05,-3.5135e-05,-0.00052156,0.00019301,-0.0018016,-0.0019524,0.00069897,-0.00020203,-0.001135,0.00050526,0.00017993,0.00011741,0.00092179,-0.00039651,-0.0003741,-0.001141,-0.00090053,0.00091996,0.00032524,-0.00078549,0.00056757,0.0015302,0.00013302,-0.00059778,-0.000357,-0.0005964,-0.00083628,0.00057909,-0.0015465,-0.0014174,-0.0017929,-0.00071849,0.00070387,-0.0018314,0.0013826,-0.00048012,0.00056589,-0.0010681,0.0012805,-0.00082591,0.0014664,9.4487e-05,0.00084258,0.00027257,0.00033451,-0.00070618,-0.00074969,-0.00047049,-0.0012014,0.00043846,-0.00072746,0.00029542,-0.00063592,-0.00079282,-0.0011984,-0.0012104,0.00031681,-0.002245,-0.0009136,-0.00081406,0.00022246,0.00035686,-0.0011267,0.0010838,-0.0016339,-0.00095392,0.00052364,-0.00030099,0.00067771,5.1323e-05,0.00012362,0.0015785,0.0011292,0.0023809,-0.00036758,6.0488e-05,-7.8367e-06,-0.00045051,-0.00082514,0.00026559,0.00018018,-0.00012793,0.00069915,0.00056778,0.0002354,-0.0010873,-0.0018338,-0.00093159,0.00083107,-0.00091267,7.7892e-05,0.00034048,0.00011493,-0.000984,0.00066468,0.001171,-0.00061637,-0.00027473,-0.00098759,-0.0010521,-0.00096187,-0.00088245,0.00073789,-6.9177e-05,4.064e-05,-0.00062612,-0.00029738,-0.001059,0.00043665,0.0011746,0.00091635,0.00055266,-0.00047956,-0.00073799,0.00092832,0.00035299,0.00047355,0.00076615,-2.0105e-07,-0.00028867,0.00044439,0.00079521,0.0012302,-0.0011842,-0.00038901,3.3824e-05,-0.00078694,-0.00055156,-0.00049234,0.00026588,0.00060375,0.00098992,-0.00080647,0.001153,-5.7246e-05,0.0020122,-0.00092461,0.00015853,3.937e-05,0.00021586,-0.0002362,-0.00096245,0.00056629,0.00092672,1.4209e-06,0.0013382,-0.001411,0.00096642,0.0006947,-0.00011568,0.0001696,0.00065734,0.00020465,-0.00047449,0.00073068,-0.00045619,0.00077874,0.00020556,0.0016219,-0.00036996,0.0009268,-0.00068044,-0.0010402,-1.3764e-05,-0.00090779,-0.0019098,0.0013841,-0.00071838,-0.0004519,0.00033411,-0.00010083,-5.1822e-05,0.00062722,-0.0014315,-0.00017398,-0.00034137,-0.00090959,0.0011394,0.00045962,-0.0022487,-0.0004525,0.0013964,-0.00064953,-0.00098684,0.00014137,-0.00047337,0.00096127,5.1146e-05,-0.0011666,-9.5016e-05,-0.00028511,0.00094769,-2.813e-05,-0.0012888,0.0017583,-0.00052829,-0.00020169,4.4675e-05,0.00027256,6.7401e-05,-0.00072133,-0.0004816,0.00045647,-0.00072612,-0.00038337,-0.0014572,-0.00028071,0.00012283,-0.0011935,0.00075861,3.6804e-05,-0.00028782,0.0011337,-0.00023288,-0.0011793,-0.00086082,0.00037483,-0.0012266,-0.00054465,0.00022241,0.00054212,-0.00080925,-0.00022829,0.00042932,-0.0003751,-0.00045548,0.00052344,-0.00052506,0.00055352,-0.00052541,0.000861,6.6632e-05,0.00053083,0.00088666,-0.00041159,-0.00036974,0.00082943,-0.0012292,0.00010857,0.00031989,-0.0005537,-0.00085964,0.0010599,-0.00070414,0.00031865,-0.0019753,-0.0017321,-0.00078293,0.00039272,0.0002037,-2.4869e-05,-0.00013576,0.00072842,-0.0015297,0.00033488,0.00094611,-0.00033458,0.00018764,-0.00022102,-5.875e-05,-0.00093897,-0.00079606,-0.00083942,-0.00071943,-0.00033771,-0.00081171,-0.00078561,0.00012046,0.0010017,0.00063893,0.00050401,0.00081886,-0.00037009,-0.00054153,0.0012494,9.8401e-05,-0.00024585,0.00038483,-0.0014548,0.00046555,0.00032562,0.00051469,0.00096437,0.00049066,0.00017598,0.0010555,-0.00051648,-0.00044748,0.00046187,0.00049389,0.00044141,-3.1303e-05,0.00095751,-0.00016826,0.00060754,0.0016038,-0.00075474,0.00063249,-0.00052965,-3.8613e-05,-0.00046449,-0.00020724,0.00016585,0.00016363,1.2382e-05,-0.00035176,-0.00046264,9.5078e-05,0.00051219,-5.1605e-06,0.00017467,0.00098773,-6.7514e-05,-0.0010644,6.309e-05,0.00042897,0.00065628,-0.00090559,0.00077868,0.00067535,0.0010286,0.00066347,-0.0010881,-1.5117e-05,-0.00022462,-0.00092651,-0.0005743,-0.00038051,0.00028182,7.3971e-05,0.00031947,-9.5058e-06,0.0013817,0.0013594,0.00060791,0.00020377,-7.0883e-05,0.00092332,-0.00026215,-0.00050009,0.00011608,0.0011893,-0.00069918,6.9526e-05,0.00033724,-0.0015507,0.00035854,-0.00020019,-0.00056169,-4.4599e-05,-0.0014441,-0.0006434,-0.0013721,0.00058686,0.00093397,0.0011747,0.00065027,-0.00037277,-0.00025895,0.0002754,0.00027823,0.00064997,-0.0013258,-0.00047348,-0.0009125,0.00093848,-0.00041328,-0.00094422,-0.00059492,0.00087681,-0.0008338,-0.00095777,0.00031253,0.00010508,-0.00072978,0.00044002,0.00012868,0.00025278,-0.0015879,-5.6166e-05,0.0022211,0.00081048,-0.00039343,-0.00049206,0.00025678,0.00054317,-0.00068531,-0.00066148,0.0013611,0.00011504,0.00062167,-0.00013644,-0.00097761,-0.00011224,0.00011758,0.00096441,0.0010501,0.00059221,-0.00027531,-0.00038979,-0.00055279,-0.00060939,0.00069655,0.00093258,0.001414,-0.0014169,-0.00010613,-0.00059804,-5.7782e-06,0.00054983,-0.00064726,-0.00056414,0.00064924,-0.00085893,-0.00038792,0.00048291,0.00023782,9.3524e-05,-0.00091497,8.311e-05,-0.0016173,-0.00066862,0.00030695,0.0002758,-0.00038746,0.00059285,0.00067202,-0.00042575,0.00034342,-0.00079051,0.00017325,0.00086912,-0.00037666,-0.0014393,0.00034011,0.00029599,0.0017359,-0.00089874,0.00045315,0.00036832,0.00096683,0.0014079,0.00061813,0.00085273,0.00022507,-0.00066106,0.0015036,0.0019228,-0.00023509,9.654e-07,0.0011335,-0.00040296,0.0010513,0.00036628,-3.5159e-05,0.00018318,0.00039271,-0.00031,-0.0013614,-0.0011673,-0.0007063,-0.00027012,0.00012078,0.00025827,-0.00073365,0.00021476,-0.0017473,-0.0015427,-0.00012743,-0.00055554,-9.9339e-06,0.00033636,0.00012658,-0.0022676,0.00053107,0.00013111,0.0003012,0.0010549,-0.0011002,-0.00083528,0.00037642,0.00044084,0.000529,-0.0012881,0.00091211,5.774e-05,0.00039103,0.00015705,0.00027533,-0.00091765,0.00044302,-0.00034626,9.0635e-05,0.00016307,0.00067864,-0.00031807,-0.00083602,0.00058159,0.0012984,-0.0015476,-0.00032835,0.00116,0.001124,0.00039177,0.00070361,0.00039464,-0.00098262,0.00062762,-0.0015666,-0.00026566,-0.0011768,-0.00088249,-0.0010448,0.0008966,0.00083036,0.00090031,0.00094206,2.4813e-05,0.00065432,-0.0010368,0.0017337,0.00062033,-0.00030857,0.00014326,0.0017044,-0.00089369,-0.00021896,-0.00101,-0.0017263,0.00083392,-0.0015215,-0.0011683,-0.0012951,-0.00030773,-0.0019753,-0.0017543,-0.00044149,0.00064572,-0.0011161,-0.0012373,0.00074981,0.00080683,-0.0003426,-0.00095981,-9.7159e-05,0.00051492,-0.00042295,-0.00042927,0.00071717,0.0016104,0.00053315,-0.00065527,-0.00035417,-0.0001196,-0.00016502,-0.00025139,-0.00048537,2.4101e-05,-0.0010126,-0.0010524,-0.0018146,-0.00068676,0.00023318,-0.0001089,-0.00073807,-0.00020934,-0.00066715,-0.0011691,0.00084202,0.00070006,0.00071374,0.00039662,-0.00082518,-9.4245e-05,0.001093,0.00041366,-0.00027653,0.00057251,-0.00058264,7.5871e-05,-0.0010216,-0.0014961,4.3053e-05,0.0014646,-0.00090368,-0.00011188,4.8778e-05,-0.00042769,0.0012138,0.00098437,5.566e-05,-0.00013774,-0.00052708,0.0003224,0.0007882,-0.0001256,0.00096676,-0.00040879,0.000396,0.00057713,0.00025761,0.00051767,0.0001965,0.0017023,-0.00020356,-1.3915e-05,0.00053138,0.00051724,-0.00063488,-0.00061762,-0.00023133,0.00093445,-0.00067642,-0.0002597,0.00020445,0.00081331,0.00075628,-0.00017485,0.0002989,-0.00049151,-0.0012942,0.00078312,0.00012247,0.0013643,-0.00055521,0.00022688,-0.00063928,-0.00029001,-0.00052995,9.1644e-05,0.00063469,0.00084721,-0.00064129,-0.00053166,0.00028489,0.0010428,0.00088127,-0.00011222,-0.00020862,0.0023723,-0.00030902,-0.00080972,0.00038441,-0.00034362,0.00245,-0.001081,0.00084974,0.00024489,0.00022115,-0.00060814,-0.00066284,-9.257e-05,0.00039106,-0.00028088,-0.00045199,-0.0018744,-0.0014265,0.0012846,0.0003391,-0.00066668,-0.00010428,0.0011157,0.0013191,0.00026764,0.00086,-0.0002953,4.9285e-05,0.00047641,-0.00054504,-0.00092131,-0.0012619,-0.00074611,-0.0001403,0.00067204,-0.00070101,0.0012158,0.0014477,0.00030968,0.00037418,-0.0010488,0.00046294,-8.7958e-05,-0.00082004,-0.0011382,0.0014247,-0.00045277,-0.00023249,-0.001061,-0.0012384,0.00046809,-0.0013088,0.00089536,-0.00050272,-0.0022153,-0.00069977,-0.0010232,0.00030969,-0.0016935,-0.0013958,-0.00016703,0.0012282,0.0018054,-0.00011492,0.00048556,-0.0007154,0.00075788,-0.0017885,-0.00053428,0.0019739,-1.0137e-05,0.00065134,0.00014851,0.00067697,-9.6898e-05,0.00080036,0.00011836,-0.00097907,-0.0006801,-0.0016699,-0.00037851,-0.00017003,0.00021455,0.0013137,0.0014702,0.00011113,-0.001166,-0.0011238,0.00079766,0.00081074,0.00047273,0.00058802,0.00085669,-0.00055423,-0.00049417,0.00024842,0.00051674,0.0006306,0.00040942,-0.00099689,-4.6492e-05,-0.0020155,-0.0016933,0.00017201,0.0010093,-0.00062709,-0.00029783,0.002028,-0.0017527,0.0018969,0.00059842,4.3339e-05,0.00016475,-0.0010528,-0.0012742,0.00040253,0.0001576,0.00094158,-0.00010721,-0.0012086,0.00022195,0.00073857,0.00053395,0.00048532,0.0010102,0.00016894,-0.00029673,-0.00024206,0.00060149,-0.00077216,0.00070509,0.0012238,0.0008447,0.00065092,0.00093617,-9.1912e-05,0.0010455,0.00057962,0.00024506,-0.00020363,-0.0003397,-0.00078046,0.00037034,0.00035982,0.00089357,-0.00022981,0.00019516,-0.0013122,0.00011441,8.8215e-05,-2.0533e-06,0.0015244,0.0004053,-0.00095921,-0.00022422,-3.6678e-05,-0.00017542,0.0014265,-0.00089561,-0.00016475,-0.00013756,0.0010405,5.9295e-05,-0.0008445,0.00052863,-0.00024682,-0.0020873,0.00076787,0.00098471,-0.0024402,0.00045126,-0.0007446,-0.00027822,0.00054024,-0.0011864,0.00062774,-0.00086072,-0.00084209,0.001449,0.0013913,-0.00087536,0.00028508,0.0011151,0.0006456,0.00026139,0.0013016,0.00029014,-0.00054763,0.0009163,0.00035978,-0.00063237,-0.0011035,-0.00099423,-0.0013638,-0.00063705,-0.00043986,0.00077189,0.002083,-0.00024045,0.00072885,-0.0013294,-0.00051794,-0.00027991,6.1727e-05,0.00021813,0.0011756,0.00042167,-0.00056849,-9.0735e-05,-0.0013888,0.0015009,-0.0012672,0.00074881,-0.00066846,-0.0021394,-0.00085755,-0.00097524,3.299e-05,-0.0017233,-0.0021651,-0.0001578,0.00064336,0.0013218,-0.00035028,-0.00067378,-0.00090365,-2.7835e-05,-5.4423e-05,-0.00074875,0.001478,-0.00044684,-0.00039951,-0.00092786,-0.00050649,-0.00017366,0.00088858,0.00047461,-0.00036125,0.00037277,-0.00066436,0.00066254,-0.00040761,0.00098324,0.00057164,0.00072934,-0.00080938,-0.0015281,-0.001215,0.00053741,0.0016639,-0.00012846,-0.00015321,0.0011486,-5.5855e-05,-0.0012026,0.0004108,-0.00056847,-0.00056668,-0.00023544,-0.00056341,0.001338,-6.7126e-05,-0.0012685,-0.0010707,0.00061918,-0.00094588,-0.0010049,0.0012728,-0.0012866,0.0010408,0.00074646,-0.0007964,-0.00013294,-0.00037448,-0.0011171,0.0012989,0.0012854,0.0023117,0.00094577,-0.0018542,-0.00033186,0.0011677,0.0011101,3.8106e-05,0.00037629,-0.0015054,0.00049875,-0.0017346,-0.00051811,-0.00099299,0.0012507,0.00097364,0.00089342,-0.00040339,0.00092903,-0.00020055,0.0011764,0.0011303,-0.00025378,-0.00030113,-0.0001092,-0.00013974,0.00093457,-0.0001716,0.00053632,0.0014487,0.00075849,9.8926e-05,0.0012468,-5.3057e-05,0.00050837,0.0013043,0.00085009,-0.00056817,0.00045916,0.00061093,0.00025185,0.0018801,0.00075861,-0.00050356,0.001358,-0.00034374,0.00075641,-0.00029392,-0.0017354,-0.00012971,-0.001706,0.00054526,0.00036545,-0.001788,0.0004126,-0.00053175,0.0003261,0.00069118,-0.0012153,0.00044753,-0.0011381,-0.00030579,0.001877,0.001925,-0.00063309,-2.8144e-05,0.001303,0.00055859,-0.00029932,0.00040727,0.00020209,-0.0007889,0.00067753,-0.00061034,-0.00050298,-0.0023321,-0.0020738,0.00078345,-0.0003522,-0.00092283,0.0011668,0.0016857,-0.00058993,0.0010435,-0.0011832,-5.9757e-05,-0.00061776,-1.0578e-05,-0.0001532,0.0010436,0.00069785,0.00025881,-0.00068245,-0.0023901,0.0016596,-0.0015745,0.00076302,0.0002932,-0.0022435,-0.00056102,-0.0020555,0.00124,-0.0023311,-0.0014329,0.00048947,0.00033751,0.0015519,0.00045816,-0.00058755,-0.0014318,-0.00021833,-0.00024628,-0.00047664,0.00079941,-0.00026928,-0.00085513,8.4548e-05,-0.00083521,-0.00021381,0.0007711,-2.0048e-05,0.00031471,0.00018628,-0.0013408,0.0005785,-0.00080813,-3.0117e-05,0.00086219,0.0012585,-0.0003855,-0.0015814,-0.001417,0.00038402,0.0013949,-0.001197,2.6886e-05,0.00096876,-0.00035091,-0.00072271,0.0010324,0.00078544,-0.00080798,-0.00016811,-0.00063366,-0.00067246,-0.00094485,-0.0011553,-0.00010276,0.0007992,-0.0012806,-0.0015405,0.0014006,-0.00099154,0.001467,0.0010582,-0.0007174,-0.00069384,-0.0012126,-0.00051609,0.0010052,0.00067555,0.0017009,0.00025471,-0.0014087,-4.5578e-05,0.00097713,0.0012286,-0.00019517,-8.6519e-05,-0.0024759,0.0009891,-0.001768,0.00019149,-0.0015218,-5.9634e-05,0.00087478,0.00090731,-0.00022551,0.0017313,-0.00071612,0.0016683,0.0013902,-0.00098061,0.00054187,-0.00085559,-0.00016688,0.00016388,0.0013514,0.0015908,0.00068758,0.0010795,-0.00087547,0.00085372,4.8532e-05,0.00071033,0.0011754,6.5535e-05,-0.00080804,-0.00026471,0.00028473,0.00060081,0.0018317,0.0010722,-0.0003385,0.0015567,0.00016356,-8.0147e-05,-0.00037195,-0.0015041,-0.00045521,-0.0016603,0.00013494,0.00024927,-0.0019017,0.00022337,-0.00078361,-7.3729e-05,0.0010333,-0.00024749,0.00031503,-0.0012624,-0.0015503,0.0021015,0.0014655,-0.0015518,0.00081351,0.0017211,0.00048168,0.00025637,-0.00015483,-5.6074e-05,-0.00011773,0.00075412,-0.0011872,-0.0012689,-0.0018981,-0.00096145,0.0007927,-0.00014107,-0.00029756,0.0014704,0.0017169,-0.00036285,0.00044747,-0.0007207,-0.00036571,0.00065505,-0.0002919,-2.3464e-05,0.0007081,0.00076918,0.0007459,-0.00069872,-0.00099004,0.00056286,-0.0016661,0.0001558,-0.0004484,-0.0016307,-7.4266e-05,-0.00091169,0.00019995,-0.0016681,-9.074e-05,7.4401e-05,0.0013589,0.00077769,2.5998e-05,0.00025847,-0.0014852,-0.00011628,-1.4832e-05,-0.00097262,0.0010894,6.0468e-05,0.00061704,0.0020318,-0.00066223,0.0010805,-0.00049916,-0.00089881,0.00045383,0.00014959,-0.00082154,7.5181e-05,-0.00088906,-0.00069326,0.00088607,0.0010829,0.00021679,-0.0013086,-0.0014346,-0.00038528,0.00091827,-0.0011132,0.00081318,2.3522e-05,-0.00044374,-0.00073423,0.00048132,0.00036919,-6.3823e-05,-0.00023508,-0.00078013,-0.00034151,-0.0014249,-0.00063153,0.00084389,-1.9227e-05,-0.0016422,-0.00094369,0.00079625,-0.00053182,0.001652,0.0017413,0.00012113,0.00018043,-0.00183,9.5802e-05,-0.00011468,0.000478,0.00068396,-0.00051686,-0.00022091,0.00025527,0.00050188,0.00099395,-6.9759e-05,-0.00046796,-0.00065987,0.00028365,-0.00050528,0.00084294,-0.0017105,0.00059363,0.0009837,0.0010218,-0.00015803,0.00062914,-0.00050341,0.0024759,3.656e-05,-0.00043902,-0.00080119,-0.0004679,-9.7732e-05,-8.0746e-05,0.00026934,0.0013623,-0.00027477,0.00045906,-0.001928,0.00061008,0.00019423,-0.00048261,-0.0002615,-0.00057392,-5.0918e-05,-0.00075542,1.8291e-05,0.00017917,0.0019323,0.00042004,0.00057287,-0.00060223,0.00079293,-0.0003031,-0.00080218,-0.0017037,0.001016,-0.0013412,0.00032442,-0.0006601,-0.0013482,0.00090996,-0.00053619,-0.00017261,0.001451,-0.00096709,-0.00036883,-0.0007125,-0.0015511,0.0016416,1.3318e-05,-0.0023025,2.9488e-05,0.0019779,-0.00013808,-0.00070181,-0.00023617,0.00010273,0.0013568,0.00017712,4.5253e-05,-0.00023704,0.00025986,0.00025566,0.00094705,0.00042378,0.00013312,0.00078189,0.00045502,-0.00012228,0.00026936,0.00082229,-0.0010211,-0.00017516,-0.00077128,-0.00035745,-0.00050381,-0.00060328,0.00058119,0.00018371,-4.1838e-05,0.001479,-0.00089765,-0.00081372,0.0002143,-0.0015837,0.00064704,-0.000558,0.00039823,-0.00074017,7.1711e-05,0.00078892,0.0011718,-0.00051379,0.00096346,0.00043443,-0.00077805,2.61e-05,-0.00031738,-0.0011717,0.0010786,-0.00011288,0.00026693,0.00075913,-0.00077819,-6.1573e-05,0.00052249,-0.00081686,0.0014111,6.5058e-05,-0.00082118,0.00071684,-0.00099168,-0.00033897,0.0013419,8.5179e-05,0.00069631,-0.00086314,-0.0015868,-0.00049472,0.00046029,0.00046518,0.00094708,0.0002928,-0.00038424,-0.00060003,-0.00047329,0.00072634,-0.0001898,0.00055864,-0.0012681,-0.00059737,-0.0010213,-0.00079153,-0.00063315,-0.0015131,-0.0012538,0.00043476,0.00042203,-0.00089205,0.0010107,0.000745,0.00057189,0.00095589,-0.00029092,-0.00031609,0.00042621,-0.00022101,0.00040844,-0.0011614,-0.0005487,0.00037211,6.3608e-05,0.00039406,-0.0007603,-0.00015019,-0.00061016,-0.00064453,-0.00065941,0.0014967,-0.00071271,0.0011417,6.5403e-05,0.00026387,0.00098379,-4.7508e-06,-0.00021278,0.00021699,0.00064985,5.9587e-05,-0.00089787,-0.0004672,6.0857e-05,0.00014501,0.00069799,0.00031367,-0.00015551,-0.00034033,-0.0013209,-0.00015705,-0.00035312,-0.00077954,-1.0693e-05,0.00028237,5.7811e-05,-0.00064584,-0.00039808,0.00083465,0.00057607,-0.00088268,-0.00077078,-0.00046627,0.00043625,0.00017699,-0.0012205,-0.00020603,-0.00011861,-0.00066248,-0.00052672,-0.00021107,-0.00054074,0.0017438,0.00035001,-0.00065031,0.0020791,0.0005581,0.00048308,-0.00016871,-0.00089493,0.0017319,7.2826e-05,-0.00090889,-0.00018955,0.0015133,-0.00053461,-0.00085305,0.00012462,-0.0013161,0.00034197,-0.00075997,0.00037401,0.0011352,-0.00072215,-0.00075418,-0.0031966,0.00096613,-0.00022541,0.00083164,0.0005486,-0.00025142,-0.00036331,0.00026284,-0.00095558,-0.00028174,-0.00035055,-0.0004288,-0.00015696,0.00063893,-0.00028113,-0.0014574,0.00072633,0.00069066,-0.0010693,0.00032955,0.00079199,-0.00054172,-0.00054442,0.00026864,-0.00026333,-0.00060554,-0.0012032,9.3052e-05,0.0023735,0.00082922,-0.00090264,-7.7261e-05,-0.00010691,0.0017507,-0.00090855,-5.211e-05,0.0017601,-0.00046114,0.0016429,-0.00086593,1.7528e-05,0.00029363,-0.00085168,-8.7947e-06,-0.00023296,0.00089912,0.00093801,-7.8393e-05,0.0010216,0.00056091,-0.00037203,0.0010092,0.0018782,-0.0012418,-0.00096907,-0.0013832,-0.00015509,-0.00028019,-0.00038172,0.00028693,6.8255e-05,0.000517,-0.00097815,-0.0013138,-0.00032939,-0.00027683,-4.1189e-05,0.00047937,-0.00064583,-0.00057648,0.0011818,0.00032728,0.00073657,-0.0001447,0.0015316,-0.0002109,0.00093914,-0.00067291,-0.0014935,0.00065962,-0.0010309,-0.0020901,-0.0015172,0.0012939,0.0014029,-0.00025902,0.00077234,0.00073356,0.00027563,0.00040152,0.0012643,0.00082247,-0.00082914,-0.00046134,0.00077748,0.00081026,0.00049453,0.0009794,0.00092548,-0.0003844,0.00067123,0.00069974,-0.00027775,4.4528e-05,0.00029815,-0.0007893,-0.0018863,-0.0018515,-0.0011966,-4.592e-05,0.00057832,-0.00036566,-0.00022251,7.609e-07,-0.00038439,-0.0012344,-0.00018461,-0.00080937,0.00021225,0.00045598,-2.8147e-05,-0.00091116,0.00059934,0.0012447,0.001349,0.00064867,5.6881e-05,-0.0012664,0.00028393,3.6149e-05,-0.00042786,-0.0015203,0.00039214,0.00076487,-0.00012486,-0.00082227,0.00025275,-0.0012039,0.00066184,-0.00060335,-0.00054369,-0.0012284,0.00053499,0.00080451,-0.00027009,0.00029854,0.00087671,-0.001598,-0.0011312,0.001518,0.00076942,-0.00042526,-0.00016691,-0.00019245,-0.0004011,0.00018656,-0.00050625,0.0011067,-0.00099506,-0.0013269,-0.0016555,0.00033864,0.00018629,0.00091748,0.00060652,0.00050606,0.00083498,7.4948e-06,-0.00069935,-0.0007502,0.00032578,-0.00060165,0.0015938,-0.0009681,-0.000551,-0.0010817,-0.001373,0.00064187,-0.0012169,-0.00017112,0.00049893,-0.00047702,-0.0024485,-0.0017096,-0.00074707,0.00056488,-0.0013451,9.0737e-05,0.0009418,0.00074108,-0.00089042,-0.00067855,0.0011369,0.00049546,-0.00021595,0.00068464,0.00084958,0.0011294,-0.00011474,-0.00077323,0.00064289,0.00061413,0.00011968,-5.6135e-05,-0.0017339,-0.00023263,0.00029636,0.00026077,-0.00025573,0.00030791,-0.00061059,0.00010803,-0.00034738,0.00025326,-0.0022996,-0.0013025,0.00044829,-0.00085964,8.8452e-06,0.00082491,-0.0013644,0.0011408,0.00059196,-0.001302,-0.00046616,0.00018133,0.00019736,-0.00018679,-0.00049499,-0.00096041,0.00080411,0.001453,0.00037605,-0.00039407,0.0015568,-0.00035403,0.0013844,0.00080518,-0.00096129,0.00012996,-0.00045586,-0.00032267,-0.0012916,0.00099377,0.0015136,0.00039894,0.0010943,0.00052837,-0.00013483,0.00046506,0.00049086,0.00043065,-0.0003108,0.00076255,-1.4817e-05,0.00038727,0.0010125,0.00089246,-0.00044477,0.0017859,-0.00038986,9.3959e-05,0.00015817,0.00076908,0.001112,-0.0004781,-5.1771e-05,-0.0015688,-0.00094352,0.0012418,0.00030194,0.0016879,0.00057003,-0.00021339,0.00043396,0.00025432,-0.00093747,0.00026015,9.0254e-07,0.00036765,-0.0012466,-0.00011472,0.0017563,0.0014835,0.0010252,0.00076445,0.00089867,0.00054377,0.00037706,-0.000163,-0.0001194,-0.00066549,0.00083267,-0.00051042,0.00039841,-1.9425e-05,0.00010931,-0.0003337,-2.9855e-05,0.0005182,-0.0013388,-0.0015538,-0.0012041,-0.0014811,-0.00052503,0.0018069,0.0002637,-0.00099655,-0.0008471,0.0017932,0.00055786,0.0011214,8.0017e-05,-0.00098171,-0.00060766,0.00037796,0.00052528,0.00077446,-0.0013238,-0.00096631,-0.00080779,-0.00064696,-0.0002694,0.00089888,0.00056075,0.0013529,0.0012038,-0.0013886,-0.0013099,-0.00038423,0.000106,-0.00064129,0.001089,-0.00059916,-0.00031977,-0.0018281,-0.0011526,0.0005191,-0.0011179,0.00059475,0.00021702,-0.0012578,-0.001552,-0.0012078,0.00082857,-0.0015914,-0.0017758,0.00083801,0.0015374,0.00036513,-0.00063933,0.0002177,0.00019679,0.00017405,-0.00054381,0.00035545,0.00055254,-0.0001919,9.9624e-05,0.0015184,0.00084562,0.00022222,0.00074116,-0.00030595,-0.0012771,-0.0013044,-0.0011344,-0.00074124,0.00014865,0.00074423,-3.1668e-05,0.0017763,0.00027605,-0.00074679,-0.0017049,-0.00010475,0.00054917,-0.00046094,0.001235,0.00025469,-0.00070002,6.6138e-05,-0.0002271,-0.00061755,-0.00035429,0.00030257,-0.0001358,-0.00029571,-0.0015211,-0.0011171,0.00045493,0.00050435,0.00072411,-0.0010592,0.0020158,-0.00062235,0.0015348,0.0011959,-0.00093019,0.00030121,2.1364e-05,-0.00090832,-0.0013887,0.001327,0.0012721,0.00011046,-0.00096592,0.0004232,0.00045066,-0.00012252,-0.00034867,0.00018677,-0.00063845,-0.00033191,-0.00044961,0.00064418,0.00038776,0.0016017,0.0011171,0.00097628,-0.00038636,0.0005427,-0.00036007,0.00065087,0.0010854,0.00051326,-0.00055871,-0.0012717,-0.0010319,0.00072783,0.00042757,0.0011935,0.00062876,0.00077523,9.421e-05,0.00019373,-0.0011124,0.0017997,-0.00043818,0.00027411,-0.0015581,-0.00057155,0.0011066,0.00079635,0.0014262,-0.00015749,0.00066266,-0.00053604,0.00029211,0.00094965,-0.0007705,0.00037485,-0.00088644,-0.0012517,1.9168e-05,0.00058748,-0.0018629,-0.00017031,-0.00073539,0.00068546,-0.00090979,-0.0023913,-0.00054381,-0.00027782,-0.0007691,0.0010067,0.001235,-0.0017916,-0.00061942,0.0015554,0.00010724,0.0016787,0.00049475,0.0002135,-0.0013202,0.0015529,0.0017231,0.00038399,-0.0010795,-0.0010387,-0.00075613,-0.0014296,0.00012752,0.0013825,0.0016748,0.00059988,0.0011892,-0.002208,-0.001408,0.00076953,0.00062886,0.00021234,0.00099931,-0.00030106,-0.00047145,0.00023905,-0.0015316,0.0016482,-0.001285,0.00042344,-0.00068336,-0.00093364,-0.00089786,-0.0012936,-9.8734e-05,-0.0012842,-0.0017384,0.00071126,0.001475,2.2926e-05,-0.0004809,4.0235e-05,0.00078336,0.00037099,0.00067836,0.00022216,0.00043445,0.00021397,0.0002326,0.00097998,-0.00066672,0.00047016,0.00046346,3.2617e-05,-0.00035102,-0.00099051,-0.00083431,5.7039e-05,0.00015233,0.00058787,-0.00033249,0.00079923,-0.00034932,-0.0020301,-0.0011234,-0.0013158,0.0010679,-0.0014023,0.0009251,0.00019952,-0.00035213,-0.0012612,0.00056683,-0.00092355,-0.00023649,-0.00029274,-0.00024543,0.00098595,-0.0011012,-0.001483,-0.00058076,-0.00017415,-2.9253e-05,-0.0012561,0.0012913,-7.6611e-05,0.00086646,0.0012839,-0.00098203,0.00034684,-0.00040345,-0.0001811,-0.0010344,0.0017352,0.0020486,0.0010658,-0.0010386,0.00029663,0.0009237,-0.00023269,-0.00070833,0.00023501,-0.0010805,-0.00074512,-0.00074163,-0.00016417,-0.0001104,0.001793,0.0011732,0.00086849,-0.0012011,-0.00049419,-0.0009807,0.00062301,0.00060052,0.0003683,-0.0007214,-0.0011978,-0.00040521,0.0011622,0.00027808,0.00077992,0.0013213,0.00051404,0.00050533,0.00084219,-0.00078087,0.0016203,-0.00072551,-8.7113e-05,-0.00044286,-0.0003287,0.0012173,0.001076,0.0019035,0.00035435,-2.076e-05,-7.8446e-05,-0.00016117,0.0023544,-0.0012009,-0.0010933,-0.0010385,-0.00077372,-0.00026884,-9.4042e-05,-0.0013498,-0.0015796,-0.00067219,8.1235e-05,0.00037848,-0.0017256,-0.00060505,-0.0010258,0.00011638,0.00059302,0.0013747,-0.0022387,-0.0012189,0.0013386,0.00015833,0.0014879,0.00093782,0.00020366,-0.0010061,0.0012702,0.00061485,0.00037594,-0.0021807,-0.001737,0.00067363,-0.00039079,2.3342e-05,0.0011955,0.001116,0.00078955,0.00099332,-0.0018572,-0.00033798,0.0003234,-0.00012156,-0.00095007,0.00036961,0.00086261,0.00040915,-0.00025143,-0.0017906,0.0016326,-0.0011772,5.9397e-05,0.00018855,-0.000181,-0.00046166,-0.0019304,-0.00028332,-0.0013635,-0.0012877,0.00087288,0.0015499,0.00034443,-0.00039854,-0.00060036,-8.2988e-05,-0.00039333,-0.00032155,-0.00074342,-0.00036532,0.00032057,-0.00051591,0.0025519,-0.00080785,0.00017074,0.00021149,-0.00059011,-3.4306e-05,-0.0011444,-0.00044871,0.00029833,-0.00039832,-0.00052505,0.0004076,0.0016254,-0.00055276,-0.0012018,-0.0011149,-0.00015113,0.001065,-0.00066878,0.0010285,0.00073379,-0.0010445,7.2867e-05,0.00057145,-0.00098458,-0.0015027,-0.00051533,-0.00067702,-9.8285e-05,-0.0016869,-0.0010602,-3.2283e-05,-0.00027317,3.2451e-05,-0.0010771,0.0018168,0.00043076,0.0017404,0.0013682,-0.00041858,-0.00032994,-0.00068017,5.9273e-05,-0.00044,0.00088462,0.0015092,-4.3109e-05,-0.0010255,0.00055347,-0.00025199,-0.00031531,0.00019593,0.00043817,-0.0015309,0.00016688,-0.0013695,0.0012517,-0.0011537,0.00060593,0.00057136,0.00070002,-0.00029142,0.00024551,-0.00091405,0.0012195,0.0016544,-0.00051009,0.0002456,-0.0017874,-0.0004771,-0.00044412,0.0014643,0.0009208,0.00034719,0.00014776,0.00026304,5.5479e-05,-0.0011333,0.0012469,0.00034563,0.00013566,-0.0003471,-0.0002455,0.0013074,0.0021701,0.0014438,0.00093239,0.00078577,0.00040651,9.1794e-05,0.00084621,-0.0014335,-0.00031249,-9.9287e-05,-0.00068442,0.00023709,-0.0008851,-0.001788,-0.0005402,-0.00064027,-0.00044765,0.0010037,-0.00099332,-0.00057961,-0.0016819,-0.00038861,0.0011444,0.0015262,-0.0028197,-0.00023488,0.0015044,-0.00024238,0.0012447,0.00077881,0.00026794,0.00061287,-0.0001491,-0.00031343,-0.0007324,-0.0012554,-0.0010257,0.0008415,0.0004592,0.0001317,0.00086717,0.00029095,9.4838e-05,0.00052446,-0.0012693,-0.00023848,-0.00010163,-0.00019585,-0.0001035,0.00045181,0.00021642,0.00099413,0.00015736,-0.00042204,-9.1147e-05,-0.0011226,-0.00022169,-0.00014187,-1.5073e-05,-0.00050341,-3.4261e-05,-0.00054395,-5.2899e-05,-0.0014276,0.00030207,0.00079782,-4.0626e-05,-0.00016606,6.0473e-05,-5.7846e-05,-0.00091832,3.6224e-05,-1.9662e-05,0.00032564,-0.0003615,0.00076965,0.001663,-0.0010986,0.00086006,-0.00046552,-0.00072525,-0.00014502,-0.00063155,0.00032715,-0.00073025,2.4297e-05,-0.001223,0.00033968,0.0011832,-0.00070657,-0.00062634,-0.0014891,-0.00054648,0.0010415,-0.00042092,0.0015029,-3.4087e-05,-0.0012015,4.1585e-06,0.00017533,-9.784e-05,-0.0014846,-0.00028882,-0.00013039,0.00053043,-0.0012131,-0.0010218,0.0008392,0.00057567,-8.6484e-05,-0.0002556,0.0015975,0.0006401,0.0014775,0.0018727,-0.00045968,-0.00044219,-0.0018219,0.00032549,-0.00046508,-1.3e-05,0.00056205,-0.0008022,0.00026986,0.00015296,-8.1844e-05,-0.00032845,7.7234e-05,-0.00072074,-0.00098592,-0.00011238,-0.00095483,0.00092358,-0.0015463,0.00047879,-9.5758e-06,0.0011967,-0.00052369,-0.00013905,-0.00047587,0.00088856,-0.00036703,-0.00034952,-0.0012431,-0.001686,-0.00038945,0.0015901,0.00025823,0.00064107,-0.00041692,-0.00041133,-9.6655e-05,-0.00051409,-0.00074455,0.00037835,-0.00030226,0.00014942,-0.00036977,-0.00061528,6.4557e-05,0.001422,0.0016455,7.1245e-05,0.0010384,-0.0015271,0.00055279,-0.00021824,-0.0012512,-0.0016903,0.00065554,-0.00063751,0.00011778,-0.00039517,-0.00090445,0.00016281,-0.00042045,-0.00019056,0.0012503,-0.00061208,-0.00086248,-0.0013018,-0.00074676,0.00092938,-0.0011705,-0.0020024,-0.00050072,0.0015709,-0.00098552,0.00062157,0.00018302,6.365e-05,0.0016337,0.00028589,6.0963e-05,1.2352e-05,0.00042909,-6.6037e-05,0.00040716,0.0011591,-0.00057093,0.0010511,-0.00043564,-6.1371e-05,-0.00063247,0.00012531,-0.0011047,-0.00026947,-0.00043465,-0.00025468,2.5908e-05,-0.00078279,0.00031358,0.0003771,0.00040543,0.0011501,-0.0016206,-0.0011646,0.00032851,-0.00021379,-0.00014548,0.0001169,-0.00026409,-0.0011737,-0.0013591,0.0010411,0.0015628,2.1758e-05,0.00089805,0.00071712,-0.00026647,-0.00044056,0.00030187,0.00033302,0.0013359,-0.00079046,-0.00055286,0.00046611,-8.7532e-05,-0.00053276,-0.00012697,-0.0010552,0.00062074,-0.00050464,0.00010255,0.00047586,-0.00072596,-0.0001441,0.00012528,0.00076325,0.00018518,-0.00068408,-0.0013206,9.5998e-05,-0.000561,2.2327e-05,0.001032,0.00050657,-0.00042784,-0.00061695,-0.00022921,0.00030081,-8.3549e-05,-0.00025377,-0.00013937,-0.00010159,-0.00095708,0.00012047,-0.00040746,-0.00067236,0.00034515,0.00088429,0.001551,0.00053031,0.0013693,0.00018164,0.00033088,6.5228e-05,-0.00014817,-0.00043087,-0.00034739,-0.0010938,0.00033964,-0.00097593,-0.0004119,8.452e-05,-0.00052223,-0.00029699,-0.00042548,-0.00049077,-0.0010798,-0.00099341,-0.00056716,0.00098984,-0.00051733,0.00063028,-0.00037431,-0.00013297,0.00064762,0.00033198,0.00012496,-0.0013576,0.00072382,0.00020033,-0.0015048,-0.0020465,0.00017274,0.0013,0.00084691,-0.00068414,-0.00023139,-0.0011411,-0.00023758,-0.0016286,0.00025532,0.00025683,-0.00020958,0.00063125,-0.00031354,0.00013113,-0.0010356,0.0013569,-4.2566e-05,-0.00010034,-0.00091509,-0.0017222,0.00051667,0.00011743,-0.001387,-0.0006848,-3.225e-05,0.00030929,-0.00081329,0.00039322,-0.00071239,0.00036015,0.00010234,-0.00034123,0.0016553,0.00094375,7.3675e-05,-0.00064955,0.00044347,0.0013439,-9.0196e-06,-0.00056252,-0.0004152,0.00053038,-0.00054411,0.00069353,0.001138,-0.00018208,3.3872e-05,-0.00033282,0.00052369,-0.00016782,0.00055044,0.00031801,-0.0015784,0.00028881,4.6963e-05,-3.3358e-05,0.00097608,-0.00050824,-0.0011034,-0.00046009,-0.00092878,-2.2599e-06,-0.00089543,-9.6659e-06,-0.00040228,-0.00046894,-0.0011206,-7.8307e-05,0.0013641,0.00072417,-0.0021274,-3.261e-05,0.00091338,-0.0010326,0.00065988,6.8978e-05,-0.00073959,-0.00055634,-0.0012024,-0.0005886,0.0018932,-0.00053122,-0.00015256,0.00020351,0.00096685,0.0018608,-0.00091971,0.0007976,-0.00023886,-0.00041354,0.00037642,-0.0018998,-0.00083727,0.00062759,-0.0014369,-0.00023115,0.0010785,-7.5297e-05,0.00036205,-0.00036751,5.2465e-05,-0.00016701,-0.00014346,0.00041273,0.00051516,-0.0012013,-0.00064817,-0.0027186,0.00068857,0.00030468,0.0012648,0.0011681,0.00063209,0.00099034,-0.0015117,-0.00056352,-6.5356e-05,0.00047351,0.0012318,0.00058458,-0.00038003,-0.00052263,0.00035015,0.0013436,-0.00046443,-0.0007933,-4.0065e-05,-0.00026945,-0.00073996,-0.00024229,-0.00057566,0.0013725,-0.001048,-0.0011256,-0.0021598,0.00040935,0.0011361,0.00094944,0.0010488,0.0013362,0.00010954,0.0015265,0.00033393,0.0020505,-0.0018443,-0.00062845,0.0012106,-0.0005053,0.00072986,0.0011656,0.0009968,-0.00031063,0.00014751,0.0010983,-0.0001778,-0.0014006,-0.0010937,-0.00057152,-0.0012435,-0.001139,-0.00056691,6.9429e-05,0.0011631,-3.436e-05,0.00082805,0.00081213,0.00026991,-0.001326,-0.0002814,-1.2624e-05,-5.8398e-06,0.0004097,0.00044797,-0.00069259,0.0012667,0.0013479,5.8475e-06,-0.00092368,0.00070611,-0.001676,0.00032843,0.0009438,-0.0012738,-0.0014515,-5.2984e-05,-0.0004239,-0.00076918,-0.0012721,0.00029545,-0.0021457,0.00036735,-0.00089781,-0.00041368,-0.000995,0.0005727,-0.00050503,-0.00039702,-8.6108e-05,0.00068735,-0.00064288,-0.001714,-0.00038907,0.0001511,-0.0013879,0.00059647,-0.0001258,-0.00074654,-0.00021429,0.00086359,0.0003125,-0.00068806,-0.0012628,0.00045743,-2.0161e-05,0.00047028,6.3186e-05,0.00014166,0.00054138,0.0010176,2.6375e-05,-0.00075228,-0.00040511,0.00067726,0.00020346,0.00085667,-0.00091787,-0.0011615,-0.00035844,-0.00022874,0.00050172,-0.00154,-0.00034308,0.00056409,-0.0015854,-0.0010572,-0.00097331,-0.00075288,-6.3976e-05,-0.0014906,-0.0003498,0.00086426,-1.8505e-05,-0.00025136,-0.0010199,0.0012397,-5.6761e-06,-0.0002677,0.0013301,-0.0010326,0.00017812,-0.0017623,-0.00038173,0.00010544,0.00077602,-0.00035201,0.00043294,-0.0010228,-0.0016633,0.00046035,0.00086814,-0.00023203,-0.00026295,0.00055071,0.00070113,-0.0011264,0.00032549,-0.0017182,-0.00058677,0.00074052,-0.0016873,0.00045727,0.00090008,-0.0012719,0.0016015,-0.00021969,-0.00049544,-0.00057429,1.2078e-05,0.0002427,-0.0004737,-0.00047151,-0.00063179,-1.1103e-05,0.0011829,0.00094223,-0.0010089,0.00081104,-0.00060281,-2.5427e-05,0.0007165,0.00074741,0.0012855,-0.0010252,0.00022217,-0.001471,0.0012949,0.00096336,0.00093869,0.0013049,0.0010145,-9.1961e-07,0.00081073,-0.0001558,0.0014077,-0.00081393,0.0011187,0.00080351,-0.00037871,0.00084191,0.00086528,-0.00061273,-0.00011331,-0.0012567,0.001197,-0.00031627,1.0803e-05,-0.00010513,-0.0010717,-0.00049709,-0.0016077,-0.00037609,0.0010288,0.0010706,0.0010784,0.0011645,4.5686e-05,0.00046497,-0.00027849,-0.0018725,0.00021119,5.3618e-05,0.00010592,-0.00048476,-0.00035998,0.0016311,0.00023211,0.00024655,0.00071667,0.0014554,-0.0013212,0.00022728,3.2175e-05,-0.00071637,-0.00071152,0.00047338,-0.0011184,-4.0355e-06,-0.00067641,0.00082615,-0.0012356,-0.00016153,0.00059587,-0.0010506,-0.0016262,-0.00076912,-0.0013807,-0.00080016,0.0012543,0.00046017,-0.00031291,-0.00095233,0.00097032,0.0010943,0.00067251,0.00099242,-0.00066137,-0.0010951,-0.0008388,0.0015201,1.7257e-05,-0.0010699,-0.0012905,-0.00013902,-0.00061507,-2.9672e-05,0.00032367,0.00039982,0.0014398,0.0013088,-0.0010917,-0.00073553,0.00014194,0.00022476,-0.0010935,0.00012185,-0.0008341,-0.00045504,-0.00021482,-0.0011039,-0.00023237,-0.0013071,0.00049646,0.0011906,-0.0012966,-0.00051267,-0.00014259,0.00032326,-0.0011584,-0.0012413,0.0006092,0.0016718,0.0011562,-0.00028577,-3.3995e-05,-0.00023938,1.9213e-06,-0.00060241,0.00060042,-0.00038578,-0.00067112,-0.0005979,0.0010303,0.00051912,0.0011048,-0.00049452,-0.00054489,-0.001017,-0.0015006,-0.00028143,0.00093548,0.00051278,0.00042292,0.0011248,0.0021032,0.0006372,-0.00061581,-0.0012236,0.0010819,0.00048824,-0.001407,0.00041723,-0.00043589,-0.0012021,9.168e-05,-0.00053666,-0.0011718,0.00038576,0.00011014,0.00025129,-0.00080236,-0.0011632,-0.001218,0.00022234,0.00039835,0.0019617,-0.0014094,0.00082912,-0.0013171,0.00093229,0.0010528,-2.6864e-05,-0.00020326,-0.00028433,-0.00029725,-0.0011482,0.0017364,0.0015124,3.2545e-05,-0.00088209,0.00066026,0.00059048,0.00013972,-0.00047778,0.00035202,8.5864e-05,0.00065327,0.00043458,0.00022839,0.00044715,0.0012015,0.00078141,-0.00010894,-0.00075039,0.0014352,-0.0026481,0.00029923,-1.1533e-05,-0.00075255,-0.00075724,-0.0013165,-0.0010878,0.00077734,0.00088805,-0.00011562,0.00066592,0.00047582,-0.00040101,0.00044483,-0.0020394,0.0012528,-0.00025276,-8.0812e-05,-0.00054999,-0.00039985,0.00075614,6.6067e-05,0.0012837,0.00036836,0.001268,-0.0015731,0.00029965,0.00072089,-0.0011052,0.00022546,-0.0011007,-0.0013287,4.4449e-05,0.00026386,-0.00060279,-0.00014264,-0.0012069,-2.285e-05,1.7831e-05,-0.00077902,-4.3503e-05,0.0001689,-0.00076297,0.00021374,0.00087067,-0.0011674,7.1952e-05,0.0013539,0.00050489,0.00087218,0.00081905,0.00045054,-0.00076653,0.00013489,0.0019422,0.00027227,-0.00051967,-0.00075783,-0.001032,-0.0010837,-5.1875e-05,0.00038847,0.0010757,0.00035747,0.0007944,-0.001515,-0.0011147,0.0008808,0.0012749,-0.0014125,0.00023463,-0.00050692,0.00010813,0.0011549,-0.0010968,0.0010081,-0.0010123,0.00073738,6.9083e-05,-0.0010944,-0.00069662,0.00018552,-0.00043973,-0.0012882,-0.00033424,0.00039608,0.0015503,0.00087348,0.00054699,0.00082992,0.00058815,0.00041565,-0.00045097,-0.00017979,-7.6591e-05,9.0786e-05,-0.00079015,0.00085707,0.00026046,0.00069387,-0.00066249,-0.00069663,-0.0004567,-0.0003023,0.00069555,0.00068,-7.2461e-05,-0.00034449,0.00083139,0.0009875,0.0005674,-0.001049,-0.0012629,-5.8847e-05,4.0315e-05,-0.001171,0.00037884,-0.00043741,-0.00040343,-0.00063498,-0.00039021,-0.00071267,-0.00020738,0.00023405,0.00053446,0.00074884,-0.00092046,-0.00071907,-0.00011934,-0.00057715,0.0004247,-0.0009783,0.00099916,5.6995e-05,0.0008337,0.0014517,-0.00051075,0.00046982,-0.0002105,-0.00019982,-0.00048208,0.0014539,0.0023963,-0.00090351,-0.0006317,0.00056183,0.00040046,-0.00015392,-0.00071343,-0.0002289,0.00066046,-0.00031233,0.00032425,0.0004001,-0.00024335,0.0014854,0.00075181,-0.00012016,-0.0010357,0.00022389,-0.0017534,0.00078453,-0.00041865,-4.6379e-05,-0.00046793,-0.0013336,-0.00064865,0.00060495,0.0014708,0.00018,0.001391,-7.0672e-05,-0.00010907,0.00071061,-0.0018763,0.0012833,-0.00038044,-0.00026021,0.00019191,9.8356e-05,0.00095156,0.00075843,0.0012632,0.00023004,0.00021482,-0.001085,0.00050625,0.0018875,-0.0014305,-0.0008488,-0.001052,-0.00045564,-9.479e-05,-0.00037473,-0.00024107,-0.0010136,-0.001326,-7.0681e-06,0.0014541,-0.00082425,-0.00061333,-0.00049006,0.00040481,-0.0008961,0.0012898,-0.0018825,-0.00079683,0.00071025,0.00046736,0.0014748,-2.7835e-05,0.00034623,-0.00098279,-4.4054e-05,0.00046634,0.00034692,-0.0009007,-0.0014879,-0.00052445,-0.00050661,-0.00040703,5.7318e-06,0.00041236,0.00049804,0.0012353,-0.0012884,-2.4394e-05,-0.00030222,-0.00044861,-0.0018009,-0.00021318,0.00011774,-0.00019684,-0.00070499,-0.0012477,-0.00024223,-0.0004532,-0.0005634,0.00099946,-0.00055109,-0.00057962,2.807e-06,-0.00058267,-0.00085642,0.00013486,0.00060493,0.0010016,0.00086024,-7.5516e-05,8.8453e-05,2.1111e-06,-0.00023542,-0.0005709,-0.001017,3.0704e-05,0.00065588,-0.0021261,0.0020468,0.00091654,0.00096266,-2.1082e-05,-0.00074418,-0.00047595,-0.0005799,0.0006029,0.00047649,3.677e-05,-0.00071861,0.00083653,0.0014181,0.0001872,-0.0004442,-0.0010083,0.0013071,0.00074274,-6.6117e-06,0.0010469,-0.00034233,-0.00052616,-1.6552e-07,-7.5063e-05,-0.00075466,-0.00069543,-0.00026521,-0.0010844,-0.00081155,-0.00096647,-0.0002392,-0.00034669,-0.0011321,0.00022172,-0.00013763,0.00086916,-0.00055908,0.0011786,0.001145,4.547e-05,0.00032468,-0.00050335,0.00018281,2.0632e-05,0.0006586,0.00085429,-0.00011564,-0.00077306,0.001706,-0.00066896,-0.0010425,-0.00078352,-3.8461e-06,-0.00026493,0.0002176,-0.0006622,0.0010388,-0.00019539,0.0005285,3.7771e-05,0.00019221,-0.00086492,3.1202e-05,-0.0013843,0.0010022,0.0010499,0.00015035,0.00071451,-0.0010828,-0.000342,-0.00052665,0.0010177,-0.00066065,0.0008207,0.00011066,-0.00076724,-4.3156e-05,-0.00088336,0.00075631,0.00035062,0.00020214,0.00025945,0.00071291,0.00053873,0.0009754,0.00079683,0.0011468,0.00034041,-0.00082942,0.00093811,0.00025685,-0.0010867,0.0012022,0.00029294,-0.0011469,-5.3407e-05,-0.0011607,-0.0014094,0.00069082,-0.0010299,-0.00058047,0.0015991,-0.00019836,-0.00099385,-0.00078388,0.00031946,0.00047512,0.00055937,-0.0016015,-0.00038397,0.0012208,-0.00024347,0.001059,4.3801e-05,-0.0004891,0.00010945,-0.00084674,0.00054175,0.0002364,-0.00091312,-0.00014042,0.00085567,-5.7287e-05,-0.00060525,0.00016629,-4.5691e-05,-0.00013261,0.00053114,-0.00059538,0.00046792,-0.00050495,-0.00041335,-0.0010071,-0.00026994,-0.00083127,6.2299e-05,0.0008521,-0.00054213,-0.00083805,-0.00038092,-7.222e-05,0.00051557,4.0573e-06,-0.0014216,0.0010202,-0.00084675,-0.00014649,0.00073001,0.00078519,9.0649e-05,-0.00039433,-0.00037875,0.0014111,-0.0001151,-0.00069012,-0.00025531,2.7609e-05,-0.00027638,-0.00023374,-0.00054287,0.0011953,-0.00057338,0.0003199,-0.0005948,7.3304e-05,0.00039046,-0.00093449,0.00079545,0.00058516,0.00052906,-0.00035672,0.00099268,0.0011752,-0.00016632,-0.00010312,-0.0012235,-0.00035775,0.00084409,-0.0003421,0.00076037,-0.00038972,-0.00060982,-3.6779e-05,-3.814e-05,-0.00064679,-7.4653e-05,-0.00063796,0.00033558,7.5683e-05,-0.00071529,0.00040442,0.00066706,-0.00036647,-0.00027614,0.0004466,0.00055067,-0.0014129,0.00060514,0.0009027,0.00033629,-0.00057339,-0.00036092,0.0011269,-0.00043841,0.00033302,-0.00051688,-0.00018112,-0.00069771,0.00089984,9.6626e-05,-5.7169e-06,-0.00045713,-2.1137e-05,5.4959e-05,-0.00044763,-0.00084179,0.0012287,0.00077493,9.944e-05,-0.00038605,0.0015543,-0.0010965,0.00018878,-0.00028848,3.0394e-05,0.00031012,0.00037951,-0.00038679,-0.0010841,-0.00040234,6.7694e-05,0.00044959,9.3594e-05,0.00074284,-0.0006942,-0.00057733,0.00047828,-0.00078745,-0.000471,3.8124e-05,0.00011376,0.00064707,0.00034704,-0.00018061,-0.00055702,0.0017226,0.00026197,0.00095676,-0.0015525,0.0009161,0.0002569,-0.00050493,-0.00060863,-0.00012052,-9.351e-05,-0.0002682,-0.00078589,0.00075001,0.0016566,-0.00052521,0.0012037,0.00044262,-0.00032657,-0.00082193,-0.0014036,-0.0012495,0.00094665,-0.00048063,-0.00054282,-0.00051241,0.00064303,-0.00048704,-5.3496e-05,0.00050083,0.00089376,0.00016678,0.00039373,-0.00024715,-0.00043706,-3.0022e-05,0.00021935,7.7961e-05,0.00089219,-0.00087523,0.00015508,0.00074104,0.00059394,6.469e-06,0.00024831,0.00029444,6.6851e-05,-0.00043144,-0.00030485,-0.0001724,-0.00032694,0.00025582,0.00010116,-0.00037501,0.00083018,-0.00052677,-0.00090095,0.0001256,0.00032636,-6.469e-05,0.00066497,0.00020281,0.00030788,0.00095848,0.0010751,0.0010396,0.00082739,5.4577e-05,0.00085586,-0.00025561,0.00030025,0.00063536,0.0013466,0.0013561,-0.0003364,0.00014827,0.00045192,0.00030217,-0.0013496,9.6115e-05,-0.00099578,0.00082032,-0.00012245,0.00098832,0.00076807,-0.00026098,-9.2777e-05,0.0001847,0.0010057,0.00012958,-0.00062613,-0.00047779,-0.00024612,-0.00025075,-0.00023125,0.00018639,-6.5616e-05,0.00028165,-0.00070336,6.1663e-05,0.0011644,-6.1928e-05,-0.00018144,0.00087738,-0.00013456,-0.00057261,0.0011156,-2.5908e-05,-0.0010566,-4.1861e-05,0.00067415,0.00083505,-0.0006381,0.0005191,0.00016785,1.7362e-05,0.00036471,-0.00071331,-0.00051154,-0.00024338,0.00015594,-0.00016115,-0.00095571,-0.0012973,-0.000323,0.00068251,-0.00044422,-0.00037717,-0.00035119,0.0005153,-0.00036345,-0.00029841,0.0013459,0.00059362,0.00010093,-0.00020646,0.00063748,-0.00056859,0.00035838,0.0010936,-0.00062904,0.00059037,0.00031015,-0.0012381,-0.00096704,5.1473e-05,0.00046516,0.0014698,-0.00030532,0.00015291,-0.00020682,-0.00052286,-0.00040842,0.00017938,9.6183e-05,-0.00019939,0.00034417,-9.3042e-05,0.0010723,-0.00083223,-3.2797e-05,0.0008914,0.0001641,-0.00079071,-0.00094933,0.00029839,0.00089695,-0.00039343,-0.00045442,-7.6901e-05,0.00064317,-0.00062356,0.0002269,0.00037249,0.0016332,0.00017518,0.00026752,0.0013852,0.0013343,-0.00019781,-0.001018,0.00014784,0.0012397,0.0005541,0.00026187,-0.00022436,6.481e-05,0.00017511,0.00051281,0.00011238,0.0003666,-0.00079734,0.00028965,5.9685e-05,0.0010778,0.0012001,0.00028174,0.0002704,-0.00027695,0.00059798,-0.0014319,-0.00077881,3.3012e-05,-1.3366e-05,0.00042578,-0.00034891,0.00028564,-0.0013933,-0.00055902,2.2839e-05,-0.0005183,-0.00054134,-0.00044507,0.0001697,0.0010795,-0.0006145,0.0010872,0.0007862,-0.00070636,-0.00064615,0.0010964,-0.00085411,-0.00092306,0.00045348,-0.00051247,5.5575e-05,-0.00052741,0.00030787,0.001039,0.0008389,0.00052606,-0.0011516,-0.00055729,-0.00023369,-0.00093415,-0.0010546,-0.00012278,-0.00072506,0.00041043,-0.00025225,-0.0012192,0.00043044,8.8427e-05,0.00062037,-0.0011712,-0.0012521,-0.001021,-5.4813e-05,0.0011166,0.00056066,0.00052496,-0.00060106,-0.0011482,-0.00083698,0.00049802,0.0012949,0.0013402,0.00021037,0.00074705,-0.00056628,0.00036299,3.2328e-05,3.5539e-05,0.0011405,0.00095332,-0.0002558,-0.0006279,-0.0012282,0.00087808,-0.0013443,0.00037895,-0.00075261,0.00090025,-0.00051699,-0.00068358,-0.00014214,-0.00082975,-0.00063524,-0.00098965,-0.0010492,0.000122,0.00056003,0.00064029,0.00122,0.00069824,-0.0006917,0.00016663,-0.0005812,0.0017071,9.8653e-05,0.0010401,-0.00029327,0.00088125,0.0001186,0.0017338,0.00059452,-0.00044191,-1.7929e-06,0.0014501,-0.00034802,-0.00097683,-0.0013216,-3.2499e-05,-0.00053453,-0.00044076,-0.00079569,-0.0008007,-0.00047099,0.00039494,0.00054076,0.00070507,-0.00070899,-0.0015562,-0.00014455,0.0010565,-0.00088455,3.4967e-05,0.0005806,-0.00030801,0.0014081,0.0016375,-0.00031068,0.00010503,-0.00035691,-0.0011757,0.00052961,-0.00039128,-0.00056503,-8.9777e-05,-0.00021975,-0.00037126,-0.0010492,-0.00094881,0.0010498,-0.00070138,-0.0007675,-0.0011075,3.997e-05,-0.0018891,-0.00052375,-0.001214,-0.0011923,0.00024922,0.0011981,-0.00041418,-0.00091298,0.0014308,-0.0016371,-0.0014692,6.3209e-05,-0.00075455,-0.00089336,-0.00053153,0.00084484,0.00023078,0.0011202,-0.0010719,0.0012691,-0.0011404,0.0008338,-0.00038413,-0.00072639,-0.0004807,-0.00023796,0.00082246,-0.001703,-0.00071543,0.00050886,9.3414e-05,-2.1634e-05,-0.00068174,-0.0008935,0.0001611,-0.00015181,0.00019495,-0.0010524,0.0010715,0.00036257,-0.00091781,-0.0018739,0.0016225,-0.00037019,7.9538e-05,-0.00036824,-0.0001198,-0.0006942,-0.00058894,-0.00039993,0.00045905,0.00052901,-0.00062907,-0.00064296,6.5761e-05,-0.000337,-0.00067891,-0.00086328,0.0011229,-0.00030834,0.00083877,-0.0005982,0.00036224,5.4606e-05,-0.0014356,0.0015553,0.0008337,0.00039501,-2.4649e-05,0.00061037,0.00040277,2.5858e-05,0.00040511,-0.00093565,-0.0010968,0.00015682,-0.00065024,-0.00043193,0.0016132,-0.0002218,0.0022391,-0.00077497,-0.00028429,0.0006114,0.00045031,0.00091846,-0.0010006,0.00028662,-0.00063885,-0.0002852,0.0011481,-0.00050281,4.4859e-05,-0.00030924,0.00017893,-0.0013336,-0.00034717,-0.00012812,2.3446e-05,-0.00057231,0.00058153,-0.0007097,0.0001117,0.00075537,0.00054206,0.00048297,-3.9828e-05,-0.00033399,-0.00034811,-0.00078835,0.00057535,0.00071311,0.0014567,0.00060155,-0.00035468,0.00088149,0.0013655,-0.0010027,-0.0013326,-9.772e-05,0.00055552,-4.2945e-05,3.3265e-05,-0.00010039,-2.0954e-05,-0.00031308,-0.0015248,-0.0005794,0.00030348,0.001635,0.00034183,0.0017528,-0.0003252,0.0015332,-0.00020861,-0.0016016,0.0011401,-0.00030115,-0.001036,0.00025144,-0.00027463,0.0008492,0.00065116,-0.00079108,0.0013605,0.0013408,0.00014003,0.00062305,-0.0013301,-0.00087629,0.00027203,-0.00055607,-0.0019444,-3.0361e-05,-0.00071181,0.0010201,-0.00072325,-0.00051704,0.00047336,-0.00018212,-0.0021003,-0.00024557,-0.00041276,-0.0016044,-0.00023172,0.00089214,-0.00034755,-0.0015022,0.00061599,0.00043953,0.00069668,0.00096736,-0.00043375,-0.00087486,-0.0005383,0.00036245,2.8321e-05,0.00056354,-0.00087015,0.0011687,-0.001087,0.0014657,-0.0011106,-0.00095915,0.00087439,0.00012953,0.00063907,-0.00089291,-0.0005289,-4.9414e-05,-0.00095411,0.0011636,-0.00036094,0.00015295,0.0007145,-0.0018585,-0.0010932,-0.0013174,0.00047734,0.00098987,-0.00062204,-0.0019737,0.0017311,-0.00037751,-0.0017528,-0.00076959,0.00060545,-0.00012051,-0.00050302,0.00035414,0.00068813,0.0010706,-0.00040704,-0.00083154,0.00021559,-0.00046141,-0.00058695,-0.00068754,0.00098135,0.00011714,0.00043747,-0.0012341,-0.000745,-0.00036367,-0.0019598,0.00036237,-2.2082e-05,-0.00019507,-0.00054635,0.0010531,0.0010179,0.00070854,-0.00014651,-0.0012537,0.00021865,0.0016357,-0.00054711,-0.00071087,-0.00034524,-8.8356e-05,0.00022169,0.00085507,-0.0014663,0.00025732,0.0001628,0.00012778,-0.0018789,0.00010709,-0.00064786,-0.00035497,0.00076062,0.00014718,-0.0010075,-0.00093735,-0.0012296,-0.00039879,0.00048276,-0.00043913,0.00015593,0.00033515,0.00025661,-0.00042803,0.0005124,0.0015516,-0.00024214,-0.00042136,-0.00023722,-0.00053735,-0.00080352,-0.00081655,-0.00014697,-4.8681e-05,-0.00011789,4.4065e-05,-0.00034268,0.0010854,0.00031874,-0.00055852,-0.0018398,-0.00048136,5.1519e-05,-0.0013947,-0.00073549,0.00038349,-0.00020545,6.7693e-05,-0.0011195,-0.0010397,4.4185e-05,0.0011675,-0.00044985,0.00083142,-5.8496e-05,0.0005104,0.00040569,-0.0018533,7.529e-05,-0.00061645,-0.00044762,0.00053404,2.4843e-05,0.00087072,0.00074974,0.0010556,-9.7964e-05,0.00060179,-0.00058218,0.0015168,-0.000533,-0.0010202,0.00091234,-0.0002271,-0.001708,-0.0016735,-0.0010733,0.00041015,0.0003432,-0.001329,0.00047589,0.0010391,-0.0012516,-0.00017996,-0.00061327,-0.0011848,-0.00070024,0.00044176,-0.00067244,-0.00061516,0.0013355,-0.00078005,-0.00048098,0.00091313,0.00084144,-0.00047889,3.0517e-05,-0.0001094,0.00014649,0.00095736,-0.001361,0.00095164,-0.0023726,0.0010485,-0.0010542,0.00014572,-0.00023284,0.00036418,-0.001096,-0.0014318,-3.1419e-05,0.0010354,-0.0014392,0.0013714,-0.0004404,0.00032478,0.0013512,-0.0015208,-0.00026136,-0.0013877,0.0012773,-6.9928e-06,-0.0012188,-0.0017645,0.0013372,-0.00064935,-0.00088941,-0.00024599,0.0013096,-0.00044189,-0.00086266,0.00041571,0.00020357,0.0013911,-0.00094224,-0.00084435,0.00028731,0.00017146,-0.0011178,-0.00067159,0.00016617,-0.00013408,2.6042e-05,-0.0012794,-0.0010044,0.00020999,-0.001711,0.0010297,0.00044631,-0.00038705,-0.00039013,0.0012086,0.00017231,0.00099512,-0.00047433,-0.0014834,-0.00059454,0.0015467,-4.5139e-05,-0.00048791,-0.00069901,0.00095436,7.168e-05,0.0018845,-0.00082157,0.00010032,0.00035494,0.0011669,0.00021857,-0.00039384,-0.00063098,-0.00047981,0.00047862,-0.0010257,-0.0012919,0.00021356,-0.00035073,0.00021839,0.00071184,-0.00016997,0.001271,0.00080363,0.00039267,0.00064386,0.00067192,0.0020094,-0.00078414,-0.00084969,-0.00015137,-0.00042992,-0.0007596,-0.00095093,-0.00032286,-0.0010738,-0.00097942,-0.00043433,-0.00022797,0.00086841,0.00025208,0.00029168,-0.0011385,-0.0010015,-0.0015097,-0.0013839,-0.00087537,0.00069868,0.00028384,-0.00010043,-0.0016729,-0.0011559,0.00024162,0.0011211,-0.00052816,0.0012206,0.00019454,0.00017925,-0.0012837,-0.0016363,-0.00056016,-0.00017683,0.00047514,0.0020415,-1.0082e-05,0.00078717,0.0015959,0.0013798,-0.00046256,-0.00052199,0.00032984,0.0021944,0.00023648,-0.0012805,0.00013149,-6.5161e-05,-0.000959,-0.0013863,-0.00020469,0.00044479,-0.00051742,-0.00088262,0.001036,0.0017044,-0.00033342,-0.00043987,-0.00058644,-0.00018224,-0.00019639,0.00045755,-0.0011818,-0.00039733,0.0010673,-0.0016142,-0.0003365,0.00020564,0.0013143,-0.00066896,7.8229e-06,0.00051534,0.00018741,0.00074314,-0.0015064,0.0007137,-0.0015577,3.2703e-05,-0.00063918,-0.00024981,0.00025809,8.4319e-05,-0.00033225,-0.00082952,-0.00063211,0.00017634,-0.0011985,0.0003275,-0.00026861,-0.0006208,-0.0013187,-0.0010815,8.5207e-05,-0.0012205,0.00021014,0.00059926,-0.0013369,-0.00062401,0.00083388,2.5117e-05,-0.00064259,0.00032532,0.00093813,9.1966e-05,0.0003208,-0.00020864,-0.00095911,0.0015131,-0.0012843,-0.0010111,0.00048378,0.00099108,-0.00051977,-0.0013516,0.00038321,0.0011414,-0.00041811,-0.00039276,-0.00079186,-0.00061552,-0.00098594,0.0012226,0.0011778,0.00056764,0.00010083,0.00083717,0.00041947,0.0012035,-0.00078245,-0.0014163,0.00097872,0.00071585,-0.00012633,9.9927e-05,-0.0009503,0.00084977,0.0006842,0.0012273,-0.00074525,0.00052232,-0.00042014,-0.00069393,-0.00042993,-9.828e-05,-0.00010828,-0.0011622,-0.00049154,0.00023395,-0.00087554,0.0012097,-0.001394,0.00036716,0.00041821,-0.00023783,0.00035983,-0.0012453,0.00017827,0.00062154,4.3504e-05,-8.8629e-05,3.648e-06,-0.00077745,0.00091078,-0.00063632,-0.00053459,-0.00075724,0.00011371,-0.00022469,5.413e-05,-1.5201e-05,0.00023581,0.00050572,0.00035692,1.1365e-06,-0.0005835,-0.0012236,-0.0013231,0.00041934,-5.3863e-05,0.00055887,0.00047982,0.00049738,-0.0016516,-0.00065556,4.9089e-06,0.001053,-0.001385,0.001131,-0.00090119,1.6541e-05,-0.0016427,-0.0004461,0.00060244,-4.6448e-05,7.9832e-05,0.0009525,0.00054769,0.00024395,0.00049223,0.0006123,0.0011359,-0.00061068,0.00021663,0.0013605,0.00010804,-0.00050519,0.00053402,0.00040978,-0.00062735,-0.00081969,4.7293e-05,-0.00066309,0.0010209,-0.0012291,0.00021028,0.0013966,0.0012214,-0.000629,-0.00079606,0.00020639,0.00032818,1.633e-06,-0.00077427,-7.4572e-05,0.00087836,-0.0012101,0.00068962,0.00058171,0.00026052,-0.00033506,-0.00025941,0.0011731,0.00036607,0.00068364,-0.00065944,0.00086065,-0.00063505,0.00029801,-0.00050228,-0.0010049,-0.00050469,0.00042677,0.00013521,2.0755e-05,0.00042999,-0.00070516,0.00046205,0.00017683,-0.00039326,-0.00071312,-4.0984e-05,-0.0011918,0.00033381,-0.0009772,0.00024369,0.00051656,-3.9917e-05,-0.00059964,0.00045661,-0.00030211,-0.0001614,2.8635e-05,0.00086199,-0.00044295,-0.00023762,-0.00025304,-0.00016372,0.00030869,-0.00072914,0.00073197,0.00033314,0.00067946,-0.00056889,-0.00056385,0.00039943,-0.00027644,0.0010209,0.00068705,-0.00010375,0.00037419,-0.0011663,0.0016005,0.0012864,0.00083678,5.3862e-05,0.0010049,0.00086044,0.00033812,0.001069,-0.00081916,-0.0005803,0.00032028,-0.00054089,0.0011902,8.4041e-05,0.00016684,-0.00017328,0.00034677,-0.00040044,0.00026532,-0.0006243,0.00025975,-0.00081877,0.00061962,0.0008365,-0.00094089,0.00048911,0.00062233,-0.00044788,0.00033784,-0.0010429,-0.00040029,0.00072667,0.00064022,-0.00052041,0.00055199,0.00054333,0.00010193,-0.0014568,-0.0014047,-0.0011466,-1.7181e-05,0.00039729,0.00057185,-0.0010975,-0.00015974,-0.00036275,0.00026889,-0.00037386,-0.00024873,0.00038543,0.0013141,-0.00013179,-0.00062264,9.2502e-05,-1.4723e-05,-0.00059547,-0.00041031,-8.1616e-05,0.00015097,0.00037445,-6.5517e-05,-0.0010954,-0.00083556,0.001069,0.00081817,-0.00023569,0.00072266,-0.00045961,0.00019678,0.00024174,-0.00081661,-0.0001052,0.00029273,0.00019883,9.9691e-05,0.00073899,-0.00057215,-8.7903e-05,0.00022999,-5.9268e-05,0.00063672,0.00027716,0.00031652,0.00014436,-0.00011431,-0.00064219,0.00064865,-0.00040234,-0.0005301,0.00019659,0.00033873,0.0010361,-0.0015018,0.0008888,0.00050119,-9.978e-05,0.00020766,-0.00089034,-0.00068842,0.00033788,0.00045704,0.00018957,-0.00015192,-0.0001485,-0.0011403,-0.00013346,0.0008979,0.0003473,-0.00036706,0.0002945,0.00032887,7.8629e-05,0.00017911,2.4049e-05,0.00047558,-3.7849e-05,0.00042183,0.00033868,-4.0876e-05,0.0010478,0.00090224,0.00026531,0.00035175,-0.00011765,-0.00095129,0.00011154,-0.00015631,-0.0007608,-0.00028328,-0.0010285,-0.00061163,0.00065093,-0.00037767,0.00017305,7.656e-07,-0.00012532,-2.1714e-05,0.00074389,0.00025154,-0.00099056,0.00010507,-0.00088711,0.00034083,-0.00037481,-0.00030404,-0.00022247,0.0010286,-0.0013815,0.00052569,-0.00023678,0.00095251,-0.00077538,-0.00049131,0.00050742,0.00055589,-0.00023564,0.00040343,-0.0012328,0.00099129,0.00035416,0.00063783,0.00034533,0.00085253,8.8309e-05,0.00063158,0.00089602,-0.00029221,-6.4522e-05,-0.0011148,-0.00060104,-2.5524e-05,-0.00044152,-8.0596e-05,-9.2861e-06,0.00074543,-0.0011011,0.00010173,0.00020403,-0.00058333,0.00036939,0.0010368,-0.00034662,-0.00030567,0.00037535,0.00029073,-0.0002977,-0.00064519,-0.00019485,-7.3487e-05,-0.000574,0.0006337,0.00046481,0.00057115,-5.0441e-05,3.3981e-05,-0.00022027,0.00017238,-0.00082451,0.00024661,-0.0014283,-0.00032219,-0.00026517,0.00022046,-0.00066247,-0.0015127,-0.00018829,0.00086392,-0.00091147,-0.00079421,0.0003785,0.0010268,0.00022232,1.5275e-05,0.00051184,0.00017356,0.00050059,0.00080353,0.0001989,-0.00037878,0.0014981,-0.0013286,-0.00011594,0.0001766,0.00059445,0.0007536,-0.00039882,-0.00033151,-0.00029581,8.5791e-06,0.00051568,-0.00070227,0.00018319,-0.00044427,0.0008569,0.00043345,0.0013037,0.0013937,0.00094735,0.00024824,-0.00023078,0.00024337,-0.00031406,0.0010229,0.00046499,-0.0003017,0.00016875,0.00050869,-0.00035439,-0.00023622,0.0011414,3.0177e-05,0.0011312,4.4409e-05,0.00090144,0.00059313,-8.2193e-05,0.0013311,-0.0021116,-0.0010224,0.0011558,0.0015902,0.00013062,-6.2302e-05,7.2182e-05,-0.00016206,4.1801e-05,0.0013717,-0.0011053,-4.349e-05,0.00059024,-0.00070898,-0.00051187,0.0023164,0.0001752,-0.0010409,0.00075942,0.00074047,-0.00066479,0.00098287,0.00083613,-0.00071358,-0.00087324,-0.00017062,-0.00026286,-0.00020053,-0.00064225,0.00068002,-0.00058826,-0.00046373,0.00063367,-0.0010987,-0.0011168,-0.00023513,-7.4584e-05,-0.00010247,-0.0015526,0.00066845,0.00012037,-0.001122,-0.00091384,0.00039724,-0.000779,-0.0014932,-0.0015506,0.0011071,0.0013172,0.00026299,0.00034271,0.00091606,-0.00058289,0.00059724,-0.0012177,0.00037691,-0.0011984,0.00033416,0.00060813,-0.0013301,-6.3443e-05,-1.0896e-05,0.0011143,0.00052081,-0.0013108,0.00057437,-0.00066721,0.00015883,0.0015402,-0.00078466,-1.4749e-05,-0.0011574,0.00054488,0.0008655,0.00058051,0.0012764,0.0011759,0.00067861,0.0004481,-0.00080466,9.1286e-05,-0.0011631,0.00064793,0.00033685,0.0015058,0.00042714,-0.0007945,0.00031249,0.00024444,-0.0013709,-0.00057681,0.00075412,0.0011385,-0.00026229,0.00091225,0.0010352,-0.0010815,-0.0010979,0.0003063,-0.00051615,-0.00094668,0.0014391,-0.0014182,0.00021936,0.0017642,0.00040628,-0.00013411,0.00025402,0.0015414,0.00038671,0.00101,-0.00030773,-0.00059133,3.2984e-05,0.00050003,0.0011495,0.00081272,-0.0011699,0.00038153,0.00040225,-0.00041807,-0.00087084,0.0016171,-0.00048949,-0.00082442,-0.0014051,-0.00018772,-0.00039292,0.00042305,-0.00045319,0.00028528,0.00011613,0.00052159,-0.0004865,6.1386e-05,-0.00094901,0.00088802,0.0013721,0.001091,0.00026042,0.0016592,-3.8154e-05,-0.00022232,0.00027651,-0.0015965,-8.776e-06,0.0010688,-0.00028387,-8.6834e-05,-3.4598e-05,0.00078329,-0.0002415,0.00081595,0.00025902,0.00016657,0.00060591,-8.9245e-05,0.00060175,0.0015584,0.00031423,-0.0011804,-0.00030083,0.00034087,-0.00069046,0.00060019,-0.00096648,-0.0003069,-0.00082369,0.00066499,0.00075047,0.00012069,-0.0010358,-1.3249e-05,-0.00055043,-0.00034003,0.0019889,-0.00092818,0.00077291,-9.3651e-05,-0.00011963,-0.00026775,0.0009017,0.00076146,0.00026562,0.00057498,-0.00030728,-0.00090706,-0.00018512,0.00039822,-0.00016022,0.00041719,-0.0015614,-3.6322e-05,-0.0016303,4.8278e-05,0.00047628,-0.00043098,-0.00037891,0.00077537,-0.00016201,-0.00060686,-0.00033201,-0.00079813,2.6795e-05,0.0010077,-0.0004839,-0.0008186,-0.00041737,0.00061432,-1.4221e-05,-0.00033359,-9.3364e-05,-0.00023243,-0.00082616,0.00069647,-0.0012911,0.0023886,0.002031,0.00017038,0.00042528,0.00026207,-0.00063167,-0.00067734,0.00077417,0.00082938,0.00097393,-0.0013996,-6.2578e-05,0.00040632,0.00068574,0.00060949,-0.00052011,0.00086725,0.00020219,-0.00073697,-0.00038877,-9.4389e-05,-0.00067657,0.00092398,-0.00055656,-9.1837e-05,-0.00028442,0.0004775,0.00080466,0.00031528,-0.00075585,-0.00079253,-0.00055566,0.00038004,-0.00068227,-8.7861e-05,0.00021399,0.00058409,-0.00071098,-0.00034485,0.00091382,-0.001354,-0.0011582,-0.00029837,0.00012825,0.00080404,0.001359,-0.00013969,0.00042147,0.00052386,-0.00012783,-3.5817e-05,8.3759e-05,0.0005434,-0.00034471,0.00029525,0.00041936,-9.5372e-05,0.00091576,0.0018278,0.00026995,-0.00030338,0.00068386,1.2135e-05,0.00080101,0.00082971,0.0002692,0.00086918,7.7701e-05,-0.00090659,0.00039249,0.00089977,0.001553,0.00021642,0.0016709,0.0013791,-0.00015925,0.0010208,0.00093085,0.00052572,-0.00089718,0.00044725,9.5871e-05,0.00048398,0.0011255,0.0004692,0.00081354,0.00079208,0.00088745,-8.0426e-05,0.0012182,-0.00016555,-5.0023e-05,-0.00083203,0.0010077,-0.00062703,-0.00060109,0.00049501,0.00086981,0.00025837,0.00067922,0.00018348,4.5575e-05,0.00059111,-0.00020297,-0.00074898,-0.0014265,0.00033917,0.0008188,0.00043529,-0.0016703,0.00027172,-0.00074978,0.00020845,0.0017775,0.00080191,-0.00030516,-0.0011674,-0.00082213,-2.971e-05,0.002449,-0.00015578,0.00011001,0.00056766,-0.00067698,0.00018522,9.0181e-05,0.0013532,0.0004168,0.0011847,-0.00092649,-0.0017692,9.4264e-05,6.7462e-05,-0.001538,0.00047338,-0.0019325,0.00019122,-0.00032282,0.00014311,0.00012304,-0.00010921,-5.3037e-05,-0.00075567,-0.00015271,0.0014734,-0.00011795,-0.0017807,-0.00019842,0.0007353,0.00073183,-0.00010435,-0.00014963,-0.00024459,0.0011605,-0.0008457,-0.00084094,-0.00068483,0.00021313,-1.6138e-05,-0.00090616,0.00081667,0.00037046,-0.00019026,-0.000239,0.00033628,-0.00069929,0.00025387,0.00013338,0.00051424,3.1904e-05,-0.00068661,0.0011901,0.0015587,0.00098202,-0.00069238,-0.00055375,0.0018782,0.0010245,0.00055593,0.00063342,-0.00052361,0.0011548,-0.00053443,0.00057096,0.00012865,-0.00050315,0.000292,0.0010533,-0.00057629,-0.00025568,0.00025557,-0.00014972,-4.5584e-05,-0.0012577,-0.00098535,-0.00042669,-0.0008555,-0.00067481,0.00068089,0.002008,0.0007493,-0.00045065,-0.00089136,-0.00015513,2.0979e-05,0.0015317,-0.0014514,-0.00054165,0.0016325,3.5992e-05,-0.0010967,-0.00010937,-0.00048754,0.00014517,-0.00039001,0.00032438,0.00011102,0.0012724,0.0002292,-0.00036177,-0.00033,-0.00056666,-0.001209,0.00070502,0.00040147,0.0013519,-0.00020568,0.00040646,-0.00096029,0.00013047,-0.00085993,0.0020067,-0.0013,0.00062307,9.8196e-05,-0.00083597,0.0011137,0.0010103,-0.00042802,-0.0010899,4.369e-05,0.00071274,0.0012656,-0.00047218,0.0004957,-0.00036255,-0.00055187,0.0001658,-0.00094816,0.00060409,0.00012134,-0.00082565,0.00063556,0.00097221,-0.00010202,-0.0017744,-0.00066063,0.0006931,0.00074658,0.00038436,-0.00040212,0.0016308,0.0017289,-0.00016909,-0.0011476,0.00023632,-8.6202e-05,0.00061173,0.00017594,-0.0011431,-0.00048431,-0.00093662,-0.00052652,0.00092291,0.0011766,3.9679e-05,-0.00048955,-0.000656,2.4719e-05,0.0029119,-0.00065827,0.0004838,-0.0013174,-0.0015812,-0.0012149,0.0010067,0.0011273,0.00056449,0.00080662,-0.001433,-0.0018017,0.00099761,-0.00040403,-0.0011062,0.00027907,-0.0019947,0.00095733,7.3523e-05,0.00062189,0.00045049,0.00050456,3.9671e-05,-0.00043692,-0.00049307,0.0013187,-0.00032259,-0.00039473,7.9457e-05,0.0013618,-0.00076521,3.4864e-05,0.00096679,0.0002113,0.0019757,-0.0015179,-0.00069024,-0.00074916,0.00047306,-0.0015597,0.00022478,-0.00093315,0.00040216,-0.00026984,-0.0012652,1.143e-05,0.00096666,0.00022555,0.00070171,0.00022843,0.00064744,0.00046606,0.0022058,1.3869e-05,0.00067889,-0.001154,-0.00090269,0.00096963,0.0012844,0.00096587,0.00038256,-0.00050905,0.0019984,-0.00072969,0.0015732,0.00055962,-0.00038648,0.00074353,0.0018364,0.00028232,-0.00023489,-0.00030099,-0.0010122,4.5921e-05,-0.0019049,-0.0013152,0.00067111,0.0001418,0.00034264,0.00092739,0.0023638,0.00074924,0.00065883,-0.00038897,-0.00019964,-9.7045e-05,0.0019256,-0.0014705,-0.00076943,0.00096722,-0.00025886,-0.0010916,-0.00026832,-0.0011042,-0.0010607,-0.00082167,-0.00013015,-0.00088854,0.002712,0.00047202,0.00023904,3.408e-05,-0.0012185,-0.0013701,0.0002918,-0.00020224,0.001185,0.00058254,4.4694e-05,-0.0010578,-0.00055364,9.1876e-05,0.0002722,-0.00074048,0.00015633,-0.00067038,5.2822e-05,-0.00086773,0.0010137,-0.00082084,-0.00033955,0.0010791,0.00093408,0.001315,-0.00033836,0.00093658,0.00040067,-0.0010094,-9.138e-05,-0.00035871,0.00099447,0.0012559,-0.00075155,-0.00016969,0.00012836,0.00052855,-0.0015191,-0.0005532,0.00053228,-0.00053174,-6.5589e-07,0.00023082,0.0015026,0.00067348,0.00020375,-0.0012739,0.00033916,-0.00018196,0.00094253,0.00028513,-0.001624,-7.5033e-05,-0.0017328,-0.0016154,0.00035703,0.00059405,0.0003715,0.00093813,-0.0014404,-0.0001891,0.0018607,-0.0006902,0.00051992,-0.00015921,-0.00094014,-0.00099775,0.00052748,0.00054629,-0.00013448,0.00081455,-0.0013875,-0.00078881,-0.00038951,-0.0010527,-0.00025542,0.00090416,-0.0018167,-6.5168e-05,6.1831e-05,0.0010313,-0.00060073,0.00022653,4.3815e-05,-0.0015609,0.0010503,0.00044568,-0.00029124,-0.00044237,-0.00059391,0.00088107,-0.00080133,0.00095401,0.0010319,-0.0010518,0.0018983,-0.0018924,-0.00049671,-0.0010848,0.0011782,-0.00066437,-0.00035403,-0.00036171,0.0004904,-0.00051658,0.00018197,0.00017202,0.0001309,0.00055083,0.00055979,0.00047808,0.00089206,0.0010737,0.0011891,0.00079569,0.00061424,-0.00097663,-0.0011663,0.0010826,0.0011399,0.0012408,0.00021836,-0.00039684,0.0011421,-0.00012181,0.0014434,0.00082945,-0.00076094,-3.7965e-05,-5.4227e-06,-2.1803e-05,-0.0004598,-0.00010119,-0.0018905,-0.0013537,-0.00053522,-0.00029094,0.0017341,0.00057059,0.0005583,0.00076465,0.0018005,0.00074009,-0.0010036,-0.00089313,-6.0291e-05,0.00016488,0.00023644,-0.001117,-0.00029001,0.0011518,-0.00033453,-0.0017,-0.00019793,-0.00014272,-0.00011391,-0.0006126,0.00034732,-0.00028322,0.0021628,-0.00017071,-0.00047329,-0.00058048,-0.00067475,-0.0016377,0.00089437,0.001147,0.0010055,0.00020491,0.00044872,-0.0010753,-0.00032298,-7.4574e-05,0.00017741,-0.0013272,0.00015104,-0.00026937,0.00011305,-0.00037119,0.00041604,-0.00059268,2.386e-05,0.0011116,0.00022995,0.001593,0.00020503,-0.00038837,-0.00010857,0.00046645,-0.00067609,-0.00045316,0.00097324,0.00083323,9.1025e-05,0.0011756,-0.00022414,0.00042727,-0.00083621,-0.00078143,-0.00054399,0.00043039,-8.6203e-05,0.00071757,0.0015694,0.0014688,0.00023299,-0.0010739,0.001234,0.00024179,0.00031491,0.00052132,-0.0014881,0.0012923,-0.0012286,-0.0016293,0.00072239,-0.0011338,0.00106,0.0018944,-0.0010124,-0.00079182,0.0010421,0.00040013,0.00086151,0.00037273,0.00072888,-0.00043306,-0.00020048,0.0001655,0.0006278,0.0001079,-0.00071656,0.00011704,0.00090977,0.0013042,-0.00050591,-3.6673e-05,-0.00055802,-2.1025e-05,0.00060409,0.00090574,-0.00014043,0.00095545,-0.00024552,-0.00064479,-0.0003746,-0.00010939,2.0641e-05,-0.00061284,4.6502e-06,0.0012469,-7.4424e-05,-0.00033465,0.00056452,-0.0010177,0.0010563,-0.0013608,0.00093575,-0.00036133,0.00046304,-0.0011013,0.00055691,0.00059844,0.00011528,-8.9883e-05,-0.00057698,-0.00024129,-0.00020885,0.00032222,0.001631,0.00049669,0.0012277,-0.00011272,-0.00025007,-0.00064959,0.0001645,-0.00014319,-0.00088848,0.00038911,0.0008018,-0.00061552,0.00014652,-0.00057433,-6.5463e-05,-0.0008382,-0.00044615,0.00069742,0.00014099,-0.00016067,0.00028104,-5.2482e-05,-0.00031333,-0.0013015,-0.00099708,-0.00074467,-0.00043589,0.00033381,0.00077833,0.00046615,0.00082498,0.00013719,0.0016635,-0.00043613,0.00017328,-0.00025487,-0.00076449,-2.6913e-05,0.00035801,-0.00076436,0.00028179,-0.00032673,-0.00012595,-0.00037526,-0.0011808,0.00040178,0.0011335,-0.0010746,-0.00084297,-0.00060454,0.0013702,0.00011141,0.00033537,-0.00085683,-0.00069197,-1.1112e-06,6.7924e-05,0.00081712,0.0010885,0.0013575,0.00018041,-0.00090917,0.00036311,0.0010281,-6.0947e-05,0.00013624,-0.00013756,0.00076029,0.00019465,0.00030812,0.0012229,-9.3676e-05,-0.00022599,0.0016572,0.00046231,0.00060975,0.0017447,0.0006448,0.00096659,0.00068658,0.00017052,-0.00076414,0.0011026,0.0014351,0.00059598,0.0007072,-0.00031346,-0.0014207,0.00039498,0.00029374,-0.00021949,0.00099215,0.00038677,0.001036,4.271e-05,0.0003914,-0.00058711,-0.00072926,0.00054911,0.0017934,0.00048133,0.00079261,-0.0005085,0.00025249,-0.0011061,-0.0012854,0.0004741,-0.00079553,0.00022153,0.00040487,-0.00097163,0.00060295,0.00075906,0.00034538,-0.00081962,0.00012639,0.00033131,-0.00064593,0.00040052,0.0015386,-0.00010219,-0.00023876,-0.00010044,0.00011126,-0.00019777,-0.00026082,9.4069e-05,-0.00014535,0.00038804,0.00082309,0.00028548,0.00024644,0.0011599,0.000148,-0.00033097,-0.00051828,0.00068889,2.3157e-05,-0.00013581,-0.0012449,-0.00037825,-0.00081001,-0.0009936,-0.00010565,-7.2207e-05,-0.0010827,0.00085729,-0.00024369,0.0011942,-0.00018128,-0.00057786,-0.0011429,-0.00010349,-0.00097057,0.00034704,-1.7434e-05,-3.2745e-05,-0.00011925,-0.00065482,-8.6649e-06,0.0003071,0.00027859,0.00021874,-0.00089942,0.00049348,0.00041961,-0.00071415,-0.00026594,-0.0012534,0.00084588,0.00055461,-0.00020449,-4.7712e-05,0.00067749,0.0012273,-0.00022296,-0.00071481,0.00076771,-0.0013996,0.00058189,7.8745e-05,-0.00031555,0.0013144,-2.9077e-05,0.00095353,-0.00043647,-0.00051089,-0.00051806,0.00015363,0.0013467,-9.2487e-05,0.0010336,0.00052816,-0.00013198,-0.0012209,0.00021038,-0.00046156,-0.001251,0.00034727,-0.0013953,0.00057035,0.00047193,-0.00014583,-0.00043809,0.00073821,0.0020392,0.001296,-8.1006e-05,-0.0011823,-0.00082823,7.7653e-05,-0.00049722,0.00095071,0.00049184,-0.0004631,0.0010795,-2.0598e-05,8.8272e-06,0.00013965,0.0014867,-0.0014691,-0.0010622,2.4064e-05,0.00048554,-0.00082245,0.00058356,-0.00077635,0.00033043,2.4713e-05,-0.00025289,-0.00057959,-0.00015224,-0.00079925,0.0010005,0.0012816,0.0014218,0.00026247,0.0014027,0.00017031,-0.0002537,0.00016363,-0.0011232,0.00020057,0.00061674,-0.0014803,9.3655e-07,-0.00062576,-0.0014004,-0.00064655,0.0014099,0.00055954,0.0008847,0.0014897,0.00076966,-0.00042721,-0.00024359,0.0012564,-0.0012714,-6.796e-05,-0.00055188,0.00063828,0.0011989,-0.0002648,-0.00027595,-0.00053315,-3.0434e-05
